<?xml version="1.0"?>
<opencv_storage>
<cascade>
  <stageType>BOOST</stageType>
  <featureType>HAAR</featureType>
  <height>20</height>
  <width>20</width>
  <stageParams>
    <boostType>GAB</boostType>
    <minHitRate>9.9500000476837158e-01</minHitRate>
    <maxFalseAlarm>5.0000000000000000e-01</maxFalseAlarm>
    <weightTrimRate>9.4999999999999996e-01</weightTrimRate>
    <maxDepth>1</maxDepth>
    <maxWeakCount>100</maxWeakCount></stageParams>
  <featureParams>
    <maxCatCount>0</maxCatCount>
    <featSize>1</featSize>
    <mode>BASIC</mode></featureParams>
  <stageNum>20</stageNum>
  <stages>
    <!-- stage 0 -->
    <_>
      <maxWeakCount>2</maxWeakCount>
      <stageThreshold>-2.7520585060119629e-01</stageThreshold>
      <weakClassifiers>
        <_>
          <internalNodes>
            0 -1 47 -8.3904869854450226e-02</internalNodes>
          <leafValues>
            6.9565218687057495e-01 -9.7297298908233643e-01</leafValues></_>
        <_>
          <internalNodes>
            0 -1 62 2.8068304061889648e-02</internalNodes>
          <leafValues>
            -9.3877631425857544e-01 6.9776707887649536e-01</leafValues></_></weakClassifiers></_>
    <!-- stage 1 -->
    <_>
      <maxWeakCount>2</maxWeakCount>
      <stageThreshold>-1.2608379125595093e-01</stageThreshold>
      <weakClassifiers>
        <_>
          <internalNodes>
            0 -1 75 6.1485253274440765e-02</internalNodes>
          <leafValues>
            -8.7409198284149170e-01 8.6096256971359253e-01</leafValues></_>
        <_>
          <internalNodes>
            0 -1 28 -8.9190386235713959e-02</internalNodes>
          <leafValues>
            7.4800819158554077e-01 -9.4773650169372559e-01</leafValues></_></weakClassifiers></_>
    <!-- stage 2 -->
    <_>
      <maxWeakCount>2</maxWeakCount>
      <stageThreshold>-5.2356100082397461e-01</stageThreshold>
      <weakClassifiers>
        <_>
          <internalNodes>
            0 -1 83 5.8683983981609344e-02</internalNodes>
          <leafValues>
            -8.7246376276016235e-01 3.9607843756675720e-01</leafValues></_>
        <_>
          <internalNodes>
            0 -1 39 -5.3136229515075684e-02</internalNodes>
          <leafValues>
            3.8907068967819214e-01 -9.1963940858840942e-01</leafValues></_></weakClassifiers></_>
    <!-- stage 3 -->
    <_>
      <maxWeakCount>6</maxWeakCount>
      <stageThreshold>-1.5179358720779419e+00</stageThreshold>
      <weakClassifiers>
        <_>
          <internalNodes>
            0 -1 107 3.5304684191942215e-02</internalNodes>
          <leafValues>
            -7.8835976123809814e-01 4.4144144654273987e-01</leafValues></_>
        <_>
          <internalNodes>
            0 -1 18 -3.0231192708015442e-02</internalNodes>
          <leafValues>
            5.1506537199020386e-01 -7.7282428741455078e-01</leafValues></_>
        <_>
          <internalNodes>
            0 -1 31 -9.3667507171630859e-03</internalNodes>
          <leafValues>
            3.5711684823036194e-01 -8.3328664302825928e-01</leafValues></_>
        <_>
          <internalNodes>
            0 -1 92 -2.2704700008034706e-02</internalNodes>
          <leafValues>
            2.8338164091110229e-01 -9.6395951509475708e-01</leafValues></_>
        <_>
          <internalNodes>
            0 -1 43 -1.4532625675201416e-02</internalNodes>
          <leafValues>
            3.5633471608161926e-01 -7.3009502887725830e-01</leafValues></_>
        <_>
          <internalNodes>
            0 -1 74 -3.6597184953279793e-04</internalNodes>
          <leafValues>
            -9.1052198410034180e-01 2.3681843280792236e-01</leafValues></_></weakClassifiers></_>
    <!-- stage 4 -->
    <_>
      <maxWeakCount>7</maxWeakCount>
      <stageThreshold>-1.3652414083480835e+00</stageThreshold>
      <weakClassifiers>
        <_>
          <internalNodes>
            0 -1 97 2.9189819470047951e-02</internalNodes>
          <leafValues>
            -7.6836156845092773e-01 2.9268291592597961e-01</leafValues></_>
        <_>
          <internalNodes>
            0 -1 57 -8.0209951847791672e-03</internalNodes>
          <leafValues>
            3.3400836586952209e-01 -7.2157186269760132e-01</leafValues></_>
        <_>
          <internalNodes>
            0 -1 93 -4.2413850314915180e-04</internalNodes>
          <leafValues>
            -8.3117872476577759e-01 2.6639571785926819e-01</leafValues></_>
        <_>
          <internalNodes>
            0 -1 36 1.3335456969798543e-05</internalNodes>
          <leafValues>
            -6.4577400684356689e-01 3.5998538136482239e-01</leafValues></_>
        <_>
          <internalNodes>
            0 -1 1 -6.2112353742122650e-02</internalNodes>
          <leafValues>
            3.2257387042045593e-01 -8.2685947418212891e-01</leafValues></_>
        <_>
          <internalNodes>
            0 -1 5 -1.1384741216897964e-01</internalNodes>
          <leafValues>
            2.0933166146278381e-01 -8.9441347122192383e-01</leafValues></_>
        <_>
          <internalNodes>
            0 -1 101 -1.1889311717823148e-03</internalNodes>
          <leafValues>
            -9.7768622636795044e-01 1.5783295035362244e-01</leafValues></_></weakClassifiers></_>
    <!-- stage 5 -->
    <_>
      <maxWeakCount>6</maxWeakCount>
      <stageThreshold>-1.3150857686996460e+00</stageThreshold>
      <weakClassifiers>
        <_>
          <internalNodes>
            0 -1 45 -1.4501975849270821e-02</internalNodes>
          <leafValues>
            4.4041451811790466e-01 -7.0024567842483521e-01</leafValues></_>
        <_>
          <internalNodes>
            0 -1 88 3.3295527100563049e-02</internalNodes>
          <leafValues>
            -7.6477408409118652e-01 2.8299003839492798e-01</leafValues></_>
        <_>
          <internalNodes>
            0 -1 70 -4.8189467634074390e-04</internalNodes>
          <leafValues>
            -9.0148246288299561e-01 2.2893227636814117e-01</leafValues></_>
        <_>
          <internalNodes>
            0 -1 72 -4.3999467743560672e-04</internalNodes>
          <leafValues>
            -8.8973194360733032e-01 1.8227382004261017e-01</leafValues></_>
        <_>
          <internalNodes>
            0 -1 95 4.3421521782875061e-02</internalNodes>
          <leafValues>
            -7.1827048063278198e-01 2.7600938081741333e-01</leafValues></_>
        <_>
          <internalNodes>
            0 -1 29 1.3335456969798543e-05</internalNodes>
          <leafValues>
            -4.6415612101554871e-01 4.5699837803840637e-01</leafValues></_></weakClassifiers></_>
    <!-- stage 6 -->
    <_>
      <maxWeakCount>4</maxWeakCount>
      <stageThreshold>-8.7061846256256104e-01</stageThreshold>
      <weakClassifiers>
        <_>
          <internalNodes>
            0 -1 63 -2.1808031946420670e-02</internalNodes>
          <leafValues>
            3.9303481578826904e-01 -6.9924813508987427e-01</leafValues></_>
        <_>
          <internalNodes>
            0 -1 82 2.3921784013509750e-02</internalNodes>
          <leafValues>
            -8.3696144819259644e-01 3.0623951554298401e-01</leafValues></_>
        <_>
          <internalNodes>
            0 -1 64 4.1469454765319824e-02</internalNodes>
          <leafValues>
            1.7596104741096497e-01 -9.7716611623764038e-01</leafValues></_>
        <_>
          <internalNodes>
            0 -1 73 7.1418685838580132e-03</internalNodes>
          <leafValues>
            -5.1194083690643311e-01 4.8963007330894470e-01</leafValues></_></weakClassifiers></_>
    <!-- stage 7 -->
    <_>
      <maxWeakCount>5</maxWeakCount>
      <stageThreshold>-1.3790863752365112e+00</stageThreshold>
      <weakClassifiers>
        <_>
          <internalNodes>
            0 -1 33 3.4475266933441162e-02</internalNodes>
          <leafValues>
            -5.9493672847747803e-01 6.5079367160797119e-01</leafValues></_>
        <_>
          <internalNodes>
            0 -1 7 -3.1309618498198688e-04</internalNodes>
          <leafValues>
            -8.8864135742187500e-01 3.6903896927833557e-01</leafValues></_>
        <_>
          <internalNodes>
            0 -1 114 6.1645252571906894e-05</internalNodes>
          <leafValues>
            2.6115199923515320e-01 -9.3592357635498047e-01</leafValues></_>
        <_>
          <internalNodes>
            0 -1 34 1.7055163334589452e-04</internalNodes>
          <leafValues>
            2.7257025241851807e-01 -8.2268339395523071e-01</leafValues></_>
        <_>
          <internalNodes>
            0 -1 58 -4.3838553130626678e-02</internalNodes>
          <leafValues>
            6.6602307558059692e-01 -3.9665576815605164e-01</leafValues></_></weakClassifiers></_>
    <!-- stage 8 -->
    <_>
      <maxWeakCount>2</maxWeakCount>
      <stageThreshold>-2.1834783256053925e-01</stageThreshold>
      <weakClassifiers>
        <_>
          <internalNodes>
            0 -1 14 7.1846187114715576e-02</internalNodes>
          <leafValues>
            -6.2500000000000000e-01 8.3333331346511841e-01</leafValues></_>
        <_>
          <internalNodes>
            0 -1 7 2.6021906523965299e-04</internalNodes>
          <leafValues>
            4.0665215253829956e-01 -9.8774981498718262e-01</leafValues></_></weakClassifiers></_>
    <!-- stage 9 -->
    <_>
      <maxWeakCount>4</maxWeakCount>
      <stageThreshold>-1.0140928030014038e+00</stageThreshold>
      <weakClassifiers>
        <_>
          <internalNodes>
            0 -1 49 1.4259435236454010e-01</internalNodes>
          <leafValues>
            -5.5381602048873901e-01 9.3258428573608398e-01</leafValues></_>
        <_>
          <internalNodes>
            0 -1 6 -2.2102262300904840e-04</internalNodes>
          <leafValues>
            -9.2010790109634399e-01 2.6212084293365479e-01</leafValues></_>
        <_>
          <internalNodes>
            0 -1 68 3.3406948205083609e-04</internalNodes>
          <leafValues>
            2.4792706966400146e-01 -8.0121201276779175e-01</leafValues></_>
        <_>
          <internalNodes>
            0 -1 8 -4.7750227153301239e-02</internalNodes>
          <leafValues>
            -1. 2.1190406382083893e-01</leafValues></_></weakClassifiers></_>
    <!-- stage 10 -->
    <_>
      <maxWeakCount>6</maxWeakCount>
      <stageThreshold>-1.1732859611511230e+00</stageThreshold>
      <weakClassifiers>
        <_>
          <internalNodes>
            0 -1 80 2.0618729293346405e-02</internalNodes>
          <leafValues>
            -6.6009849309921265e-01 3.5051545500755310e-01</leafValues></_>
        <_>
          <internalNodes>
            0 -1 2 3.5636343061923981e-02</internalNodes>
          <leafValues>
            2.7933809161186218e-01 -7.9248023033142090e-01</leafValues></_>
        <_>
          <internalNodes>
            0 -1 65 -1.8793958588503301e-04</internalNodes>
          <leafValues>
            -9.0088123083114624e-01 1.9875301420688629e-01</leafValues></_>
        <_>
          <internalNodes>
            0 -1 71 -2.7710344642400742e-02</internalNodes>
          <leafValues>
            6.6345405578613281e-01 -3.1870561838150024e-01</leafValues></_>
        <_>
          <internalNodes>
            0 -1 66 1.5651763533242047e-04</internalNodes>
          <leafValues>
            3.0391341447830200e-01 -7.4904370307922363e-01</leafValues></_>
        <_>
          <internalNodes>
            0 -1 22 2.9693279429920949e-05</internalNodes>
          <leafValues>
            -9.8585325479507446e-01 1.6612946987152100e-01</leafValues></_></weakClassifiers></_>
    <!-- stage 11 -->
    <_>
      <maxWeakCount>6</maxWeakCount>
      <stageThreshold>-1.3904159069061279e+00</stageThreshold>
      <weakClassifiers>
        <_>
          <internalNodes>
            0 -1 55 -6.6940076649188995e-02</internalNodes>
          <leafValues>
            5.8928573131561279e-01 -5.4508197307586670e-01</leafValues></_>
        <_>
          <internalNodes>
            0 -1 51 2.6225892361253500e-04</internalNodes>
          <leafValues>
            3.0347231030464172e-01 -6.6900712251663208e-01</leafValues></_>
        <_>
          <internalNodes>
            0 -1 69 3.4198071807622910e-04</internalNodes>
          <leafValues>
            2.9693484306335449e-01 -7.0889723300933838e-01</leafValues></_>
        <_>
          <internalNodes>
            0 -1 40 -2.0337397232651711e-02</internalNodes>
          <leafValues>
            2.2804684937000275e-01 -8.3901536464691162e-01</leafValues></_>
        <_>
          <internalNodes>
            0 -1 23 -1.3093356756144203e-05</internalNodes>
          <leafValues>
            -8.0279046297073364e-01 1.9397196173667908e-01</leafValues></_>
        <_>
          <internalNodes>
            0 -1 111 3.5337597364559770e-04</internalNodes>
          <leafValues>
            1.3483460247516632e-01 -8.7893748283386230e-01</leafValues></_></weakClassifiers></_>
    <!-- stage 12 -->
    <_>
      <maxWeakCount>9</maxWeakCount>
      <stageThreshold>-8.3437204360961914e-01</stageThreshold>
      <weakClassifiers>
        <_>
          <internalNodes>
            0 -1 52 -1.4272261410951614e-02</internalNodes>
          <leafValues>
            2.6457399129867554e-01 -6.8700265884399414e-01</leafValues></_>
        <_>
          <internalNodes>
            0 -1 68 -3.7984794471412897e-04</internalNodes>
          <leafValues>
            -7.1642756462097168e-01 1.5756437182426453e-01</leafValues></_>
        <_>
          <internalNodes>
            0 -1 30 1.2473199516534805e-02</internalNodes>
          <leafValues>
            -4.6110695600509644e-01 3.5593995451927185e-01</leafValues></_>
        <_>
          <internalNodes>
            0 -1 106 1.3275755918584764e-04</internalNodes>
          <leafValues>
            -8.8993173837661743e-01 2.3208262026309967e-01</leafValues></_>
        <_>
          <internalNodes>
            0 -1 0 6.6983755677938461e-03</internalNodes>
          <leafValues>
            1.3703450560569763e-01 -8.6420929431915283e-01</leafValues></_>
        <_>
          <internalNodes>
            0 -1 46 3.1674396246671677e-02</internalNodes>
          <leafValues>
            1.7766655981540680e-01 -8.1366938352584839e-01</leafValues></_>
        <_>
          <internalNodes>
            0 -1 96 -4.7281518345698714e-04</internalNodes>
          <leafValues>
            -1. 1.2005383521318436e-01</leafValues></_>
        <_>
          <internalNodes>
            0 -1 102 3.8912449963390827e-04</internalNodes>
          <leafValues>
            1.4647597074508667e-01 -8.2802730798721313e-01</leafValues></_>
        <_>
          <internalNodes>
            0 -1 99 -1.3841275176673662e-05</internalNodes>
          <leafValues>
            5.2181905508041382e-01 -3.4568363428115845e-01</leafValues></_></weakClassifiers></_>
    <!-- stage 13 -->
    <_>
      <maxWeakCount>9</maxWeakCount>
      <stageThreshold>-1.4875710010528564e+00</stageThreshold>
      <weakClassifiers>
        <_>
          <internalNodes>
            0 -1 50 2.2135707736015320e-01</internalNodes>
          <leafValues>
            -4.8496240377426147e-01 8.5294115543365479e-01</leafValues></_>
        <_>
          <internalNodes>
            0 -1 89 -3.8277380168437958e-02</internalNodes>
          <leafValues>
            1.6658210754394531e-01 -9.1156953573226929e-01</leafValues></_>
        <_>
          <internalNodes>
            0 -1 54 1.2476662546396255e-01</internalNodes>
          <leafValues>
            -2.3715777695178986e-01 7.7188557386398315e-01</leafValues></_>
        <_>
          <internalNodes>
            0 -1 16 -1.5375390648841858e-02</internalNodes>
          <leafValues>
            6.3043564558029175e-01 -2.4857828021049500e-01</leafValues></_>
        <_>
          <internalNodes>
            0 -1 61 -1.4739817380905151e-01</internalNodes>
          <leafValues>
            -8.3878898620605469e-01 2.7259761095046997e-01</leafValues></_>
        <_>
          <internalNodes>
            0 -1 94 2.1233301609754562e-02</internalNodes>
          <leafValues>
            -7.4432313442230225e-01 1.5419846773147583e-01</leafValues></_>
        <_>
          <internalNodes>
            0 -1 32 4.5685895020142198e-04</internalNodes>
          <leafValues>
            1.7033132910728455e-01 -8.3366745710372925e-01</leafValues></_>
        <_>
          <internalNodes>
            0 -1 12 1.3211746590968687e-05</internalNodes>
          <leafValues>
            -4.2505717277526855e-01 3.9133933186531067e-01</leafValues></_>
        <_>
          <internalNodes>
            0 -1 41 -1.5166102349758148e-01</internalNodes>
          <leafValues>
            -7.0549625158309937e-01 2.2262676060199738e-01</leafValues></_></weakClassifiers></_>
    <!-- stage 14 -->
    <_>
      <maxWeakCount>6</maxWeakCount>
      <stageThreshold>-1.0019154548645020e+00</stageThreshold>
      <weakClassifiers>
        <_>
          <internalNodes>
            0 -1 25 1.7208762074005790e-05</internalNodes>
          <leafValues>
            2.2522522509098053e-01 -6.6137564182281494e-01</leafValues></_>
        <_>
          <internalNodes>
            0 -1 4 4.5675493311136961e-04</internalNodes>
          <leafValues>
            1.1248880624771118e-01 -9.5583492517471313e-01</leafValues></_>
        <_>
          <internalNodes>
            0 -1 98 6.0840386140625924e-05</internalNodes>
          <leafValues>
            1.6770572960376740e-01 -8.9222121238708496e-01</leafValues></_>
        <_>
          <internalNodes>
            0 -1 67 -5.0855433801189065e-04</internalNodes>
          <leafValues>
            -7.5454652309417725e-01 1.4143164455890656e-01</leafValues></_>
        <_>
          <internalNodes>
            0 -1 87 -4.5635367860086262e-04</internalNodes>
          <leafValues>
            -8.3943623304367065e-01 1.7536966502666473e-01</leafValues></_>
        <_>
          <internalNodes>
            0 -1 59 9.3834638595581055e-02</internalNodes>
          <leafValues>
            1.3078813254833221e-01 -9.2356175184249878e-01</leafValues></_></weakClassifiers></_>
    <!-- stage 15 -->
    <_>
      <maxWeakCount>9</maxWeakCount>
      <stageThreshold>-1.3594468832015991e+00</stageThreshold>
      <weakClassifiers>
        <_>
          <internalNodes>
            0 -1 37 1.3586100976681337e-05</internalNodes>
          <leafValues>
            1.5384615957736969e-01 -6.4480876922607422e-01</leafValues></_>
        <_>
          <internalNodes>
            0 -1 86 1.0279606096446514e-02</internalNodes>
          <leafValues>
            -4.9334269762039185e-01 2.8921353816986084e-01</leafValues></_>
        <_>
          <internalNodes>
            0 -1 48 -9.1565202455967665e-04</internalNodes>
          <leafValues>
            -8.8411515951156616e-01 1.6904443502426147e-01</leafValues></_>
        <_>
          <internalNodes>
            0 -1 38 -1.3472620594257023e-05</internalNodes>
          <leafValues>
            -9.2636936902999878e-01 1.7666178941726685e-01</leafValues></_>
        <_>
          <internalNodes>
            0 -1 81 1.1816832702606916e-03</internalNodes>
          <leafValues>
            -4.2050144076347351e-01 3.5964438319206238e-01</leafValues></_>
        <_>
          <internalNodes>
            0 -1 27 1.3628863598569296e-05</internalNodes>
          <leafValues>
            -2.9041051864624023e-01 5.0851678848266602e-01</leafValues></_>
        <_>
          <internalNodes>
            0 -1 26 -9.1956055257469416e-05</internalNodes>
          <leafValues>
            -9.4000893831253052e-01 1.7905092239379883e-01</leafValues></_>
        <_>
          <internalNodes>
            0 -1 91 -1.0295251384377480e-02</internalNodes>
          <leafValues>
            -7.1169745922088623e-01 1.3901935517787933e-01</leafValues></_>
        <_>
          <internalNodes>
            0 -1 78 -1.8566834926605225e-01</internalNodes>
          <leafValues>
            -8.5163992643356323e-01 1.9810450077056885e-01</leafValues></_></weakClassifiers></_>
    <!-- stage 16 -->
    <_>
      <maxWeakCount>9</maxWeakCount>
      <stageThreshold>-1.0969927310943604e+00</stageThreshold>
      <weakClassifiers>
        <_>
          <internalNodes>
            0 -1 24 1.3692211723537184e-05</internalNodes>
          <leafValues>
            2.7804878354072571e-01 -6.5063291788101196e-01</leafValues></_>
        <_>
          <internalNodes>
            0 -1 13 -5.3153216838836670e-02</internalNodes>
          <leafValues>
            -1. 6.4755827188491821e-02</leafValues></_>
        <_>
          <internalNodes>
            0 -1 15 -1.0935338214039803e-03</internalNodes>
          <leafValues>
            3.1694674491882324e-01 -4.8750177025794983e-01</leafValues></_>
        <_>
          <internalNodes>
            0 -1 76 -2.1520029753446579e-02</internalNodes>
          <leafValues>
            4.2036920785903931e-01 -3.9538744091987610e-01</leafValues></_>
        <_>
          <internalNodes>
            0 -1 105 2.3438123753294349e-04</internalNodes>
          <leafValues>
            2.5433838367462158e-01 -4.9423453211784363e-01</leafValues></_>
        <_>
          <internalNodes>
            0 -1 100 1.3960940123070031e-05</internalNodes>
          <leafValues>
            -4.2001277208328247e-01 4.0140146017074585e-01</leafValues></_>
        <_>
          <internalNodes>
            0 -1 85 1.4328667894005775e-02</internalNodes>
          <leafValues>
            -2.7857777476310730e-01 6.7522621154785156e-01</leafValues></_>
        <_>
          <internalNodes>
            0 -1 113 -2.9016575354035012e-05</internalNodes>
          <leafValues>
            -9.4816088676452637e-01 2.4801334738731384e-01</leafValues></_>
        <_>
          <internalNodes>
            0 -1 84 5.9767428785562515e-02</internalNodes>
          <leafValues>
            -2.4774424731731415e-01 8.4583979845046997e-01</leafValues></_></weakClassifiers></_>
    <!-- stage 17 -->
    <_>
      <maxWeakCount>9</maxWeakCount>
      <stageThreshold>-1.3305861949920654e+00</stageThreshold>
      <weakClassifiers>
        <_>
          <internalNodes>
            0 -1 21 1.3747744560532738e-05</internalNodes>
          <leafValues>
            -7.0793652534484863e-01 8.0701753497123718e-02</leafValues></_>
        <_>
          <internalNodes>
            0 -1 10 1.2049466371536255e-02</internalNodes>
          <leafValues>
            9.2199772596359253e-02 -8.6829864978790283e-01</leafValues></_>
        <_>
          <internalNodes>
            0 -1 108 -2.8204885311424732e-03</internalNodes>
          <leafValues>
            4.5864364504814148e-01 -3.6042988300323486e-01</leafValues></_>
        <_>
          <internalNodes>
            0 -1 103 -1.6679572872817516e-03</internalNodes>
          <leafValues>
            -9.1412264108657837e-01 1.6259945929050446e-01</leafValues></_>
        <_>
          <internalNodes>
            0 -1 9 -4.0842705965042114e-01</internalNodes>
          <leafValues>
            -9.8153018951416016e-01 1.0301510989665985e-01</leafValues></_>
        <_>
          <internalNodes>
            0 -1 20 4.0530797559767962e-04</internalNodes>
          <leafValues>
            3.4646350145339966e-01 -4.8209965229034424e-01</leafValues></_>
        <_>
          <internalNodes>
            0 -1 56 -4.3261289829388261e-04</internalNodes>
          <leafValues>
            -8.3786422014236450e-01 1.8013882637023926e-01</leafValues></_>
        <_>
          <internalNodes>
            0 -1 19 -1.3150845916243270e-05</internalNodes>
          <leafValues>
            4.6957609057426453e-01 -3.1879648566246033e-01</leafValues></_>
        <_>
          <internalNodes>
            0 -1 109 -9.5039019361138344e-03</internalNodes>
          <leafValues>
            -8.4721577167510986e-01 1.3265846669673920e-01</leafValues></_></weakClassifiers></_>
    <!-- stage 18 -->
    <_>
      <maxWeakCount>9</maxWeakCount>
      <stageThreshold>-1.5164862871170044e+00</stageThreshold>
      <weakClassifiers>
        <_>
          <internalNodes>
            0 -1 38 1.6135965779540129e-05</internalNodes>
          <leafValues>
            2.5000000000000000e-01 -6.4285713434219360e-01</leafValues></_>
        <_>
          <internalNodes>
            0 -1 11 -5.0601948052644730e-02</internalNodes>
          <leafValues>
            2.3546311259269714e-01 -6.2390547990798950e-01</leafValues></_>
        <_>
          <internalNodes>
            0 -1 60 2.9608118347823620e-04</internalNodes>
          <leafValues>
            1.6741266846656799e-01 -7.7645236253738403e-01</leafValues></_>
        <_>
          <internalNodes>
            0 -1 79 5.3839525207877159e-04</internalNodes>
          <leafValues>
            1.1585812270641327e-01 -1.</leafValues></_>
        <_>
          <internalNodes>
            0 -1 42 -3.3857027301564813e-04</internalNodes>
          <leafValues>
            -4.9029332399368286e-01 2.5471320748329163e-01</leafValues></_>
        <_>
          <internalNodes>
            0 -1 104 1.9713288929779083e-04</internalNodes>
          <leafValues>
            -7.8803467750549316e-01 1.8977093696594238e-01</leafValues></_>
        <_>
          <internalNodes>
            0 -1 53 1.3901879356126301e-05</internalNodes>
          <leafValues>
            -2.5523316860198975e-01 6.3997220993041992e-01</leafValues></_>
        <_>
          <internalNodes>
            0 -1 3 -4.4816819718107581e-04</internalNodes>
          <leafValues>
            -4.2870157957077026e-01 3.3031564950942993e-01</leafValues></_>
        <_>
          <internalNodes>
            0 -1 90 4.4365203939378262e-04</internalNodes>
          <leafValues>
            4.2560622096061707e-01 -3.5924625396728516e-01</leafValues></_></weakClassifiers></_>
    <!-- stage 19 -->
    <_>
      <maxWeakCount>7</maxWeakCount>
      <stageThreshold>-8.8683044910430908e-01</stageThreshold>
      <weakClassifiers>
        <_>
          <internalNodes>
            0 -1 77 -1.0692001320421696e-02</internalNodes>
          <leafValues>
            1.8483412265777588e-01 -6.1439591646194458e-01</leafValues></_>
        <_>
          <internalNodes>
            0 -1 112 -1.5458828784176148e-05</internalNodes>
          <leafValues>
            -5.9661704301834106e-01 2.8592860698699951e-01</leafValues></_>
        <_>
          <internalNodes>
            0 -1 44 -3.1430092349182814e-05</internalNodes>
          <leafValues>
            -4.9909061193466187e-01 2.8598695993423462e-01</leafValues></_>
        <_>
          <internalNodes>
            0 -1 17 -2.1221395581960678e-02</internalNodes>
          <leafValues>
            2.6663082838058472e-01 -7.2461420297622681e-01</leafValues></_>
        <_>
          <internalNodes>
            0 -1 35 3.3705215901136398e-04</internalNodes>
          <leafValues>
            3.8779595494270325e-01 -4.8553144931793213e-01</leafValues></_>
        <_>
          <internalNodes>
            0 -1 63 2.3538494482636452e-02</internalNodes>
          <leafValues>
            -1.6384494304656982e-01 9.0924090147018433e-01</leafValues></_>
        <_>
          <internalNodes>
            0 -1 110 1.0958379134535789e-02</internalNodes>
          <leafValues>
            -3.4346753358840942e-01 4.2094108462333679e-01</leafValues></_></weakClassifiers></_></stages>
  <features>
    <_>
      <rects>
        <_>
          0 0 6 18 -1.</_>
        <_>
          0 0 3 9 2.</_>
        <_>
          3 9 3 9 2.</_></rects>
      <tilted>0</tilted></_>
    <_>
      <rects>
        <_>
          0 0 12 9 -1.</_>
        <_>
          6 0 6 9 2.</_></rects>
      <tilted>0</tilted></_>
    <_>
      <rects>
        <_>
          0 0 18 20 -1.</_>
        <_>
          0 0 9 10 2.</_>
        <_>
          9 10 9 10 2.</_></rects>
      <tilted>0</tilted></_>
    <_>
      <rects>
        <_>
          0 0 20 16 -1.</_>
        <_>
          0 0 10 8 2.</_>
        <_>
          10 8 10 8 2.</_></rects>
      <tilted>0</tilted></_>
    <_>
      <rects>
        <_>
          0 0 19 4 -1.</_>
        <_>
          0 2 19 2 2.</_></rects>
      <tilted>0</tilted></_>
    <_>
      <rects>
        <_>
          0 0 20 10 -1.</_>
        <_>
          0 5 20 5 2.</_></rects>
      <tilted>0</tilted></_>
    <_>
      <rects>
        <_>
          0 1 1 6 -1.</_>
        <_>
          0 4 1 3 2.</_></rects>
      <tilted>0</tilted></_>
    <_>
      <rects>
        <_>
          0 1 2 6 -1.</_>
        <_>
          0 4 2 3 2.</_></rects>
      <tilted>0</tilted></_>
    <_>
      <rects>
        <_>
          0 1 20 18 -1.</_>
        <_>
          0 1 10 9 2.</_>
        <_>
          10 10 10 9 2.</_></rects>
      <tilted>0</tilted></_>
    <_>
      <rects>
        <_>
          0 1 20 15 -1.</_>
        <_>
          0 6 20 5 3.</_></rects>
      <tilted>0</tilted></_>
    <_>
      <rects>
        <_>
          0 4 6 12 -1.</_>
        <_>
          0 4 3 6 2.</_>
        <_>
          3 10 3 6 2.</_></rects>
      <tilted>0</tilted></_>
    <_>
      <rects>
        <_>
          0 4 10 6 -1.</_>
        <_>
          5 4 5 6 2.</_></rects>
      <tilted>0</tilted></_>
    <_>
      <rects>
        <_>
          0 5 1 6 -1.</_>
        <_>
          0 7 1 2 3.</_></rects>
      <tilted>0</tilted></_>
    <_>
      <rects>
        <_>
          0 5 14 14 -1.</_>
        <_>
          0 5 7 7 2.</_>
        <_>
          7 12 7 7 2.</_></rects>
      <tilted>0</tilted></_>
    <_>
      <rects>
        <_>
          0 7 19 4 -1.</_>
        <_>
          0 9 19 2 2.</_></rects>
      <tilted>0</tilted></_>
    <_>
      <rects>
        <_>
          0 8 10 8 -1.</_>
        <_>
          0 8 5 4 2.</_>
        <_>
          5 12 5 4 2.</_></rects>
      <tilted>0</tilted></_>
    <_>
      <rects>
        <_>
          0 8 12 4 -1.</_>
        <_>
          0 8 6 2 2.</_>
        <_>
          6 10 6 2 2.</_></rects>
      <tilted>0</tilted></_>
    <_>
      <rects>
        <_>
          0 10 8 8 -1.</_>
        <_>
          4 10 4 8 2.</_></rects>
      <tilted>0</tilted></_>
    <_>
      <rects>
        <_>
          0 11 8 8 -1.</_>
        <_>
          4 11 4 8 2.</_></rects>
      <tilted>0</tilted></_>
    <_>
      <rects>
        <_>
          0 13 3 4 -1.</_>
        <_>
          1 13 1 4 3.</_></rects>
      <tilted>0</tilted></_>
    <_>
      <rects>
        <_>
          0 14 19 2 -1.</_>
        <_>
          0 15 19 1 2.</_></rects>
      <tilted>0</tilted></_>
    <_>
      <rects>
        <_>
          0 15 4 3 -1.</_>
        <_>
          0 16 4 1 3.</_></rects>
      <tilted>0</tilted></_>
    <_>
      <rects>
        <_>
          0 15 14 4 -1.</_>
        <_>
          0 17 14 2 2.</_></rects>
      <tilted>0</tilted></_>
    <_>
      <rects>
        <_>
          0 16 16 4 -1.</_>
        <_>
          0 16 8 2 2.</_>
        <_>
          8 18 8 2 2.</_></rects>
      <tilted>0</tilted></_>
    <_>
      <rects>
        <_>
          0 16 14 4 -1.</_>
        <_>
          0 18 14 2 2.</_></rects>
      <tilted>0</tilted></_>
    <_>
      <rects>
        <_>
          0 16 18 2 -1.</_>
        <_>
          0 17 18 1 2.</_></rects>
      <tilted>0</tilted></_>
    <_>
      <rects>
        <_>
          0 17 4 3 -1.</_>
        <_>
          2 17 2 3 2.</_></rects>
      <tilted>0</tilted></_>
    <_>
      <rects>
        <_>
          1 0 3 1 -1.</_>
        <_>
          2 0 1 1 3.</_></rects>
      <tilted>0</tilted></_>
    <_>
      <rects>
        <_>
          1 0 10 16 -1.</_>
        <_>
          6 0 5 16 2.</_></rects>
      <tilted>0</tilted></_>
    <_>
      <rects>
        <_>
          1 5 1 12 -1.</_>
        <_>
          1 11 1 6 2.</_></rects>
      <tilted>0</tilted></_>
    <_>
      <rects>
        <_>
          1 5 10 6 -1.</_>
        <_>
          1 5 5 3 2.</_>
        <_>
          6 8 5 3 2.</_></rects>
      <tilted>0</tilted></_>
    <_>
      <rects>
        <_>
          1 5 18 1 -1.</_>
        <_>
          7 5 6 1 3.</_></rects>
      <tilted>0</tilted></_>
    <_>
      <rects>
        <_>
          1 5 14 2 -1.</_>
        <_>
          1 5 7 1 2.</_>
        <_>
          8 6 7 1 2.</_></rects>
      <tilted>0</tilted></_>
    <_>
      <rects>
        <_>
          1 9 17 3 -1.</_>
        <_>
          1 10 17 1 3.</_></rects>
      <tilted>0</tilted></_>
    <_>
      <rects>
        <_>
          1 13 1 6 -1.</_>
        <_>
          1 16 1 3 2.</_></rects>
      <tilted>0</tilted></_>
    <_>
      <rects>
        <_>
          1 14 17 2 -1.</_>
        <_>
          1 15 17 1 2.</_></rects>
      <tilted>0</tilted></_>
    <_>
      <rects>
        <_>
          1 15 4 4 -1.</_>
        <_>
          1 17 4 2 2.</_></rects>
      <tilted>0</tilted></_>
    <_>
      <rects>
        <_>
          1 16 13 2 -1.</_>
        <_>
          1 17 13 1 2.</_></rects>
      <tilted>0</tilted></_>
    <_>
      <rects>
        <_>
          1 16 18 4 -1.</_>
        <_>
          1 18 18 2 2.</_></rects>
      <tilted>0</tilted></_>
    <_>
      <rects>
        <_>
          2 0 8 10 -1.</_>
        <_>
          2 5 8 5 2.</_></rects>
      <tilted>0</tilted></_>
    <_>
      <rects>
        <_>
          2 1 5 18 -1.</_>
        <_>
          2 7 5 6 3.</_></rects>
      <tilted>0</tilted></_>
    <_>
      <rects>
        <_>
          2 2 7 15 -1.</_>
        <_>
          2 7 7 5 3.</_></rects>
      <tilted>0</tilted></_>
    <_>
      <rects>
        <_>
          2 3 16 2 -1.</_>
        <_>
          2 4 16 1 2.</_></rects>
      <tilted>0</tilted></_>
    <_>
      <rects>
        <_>
          2 15 18 1 -1.</_>
        <_>
          8 15 6 1 3.</_></rects>
      <tilted>0</tilted></_>
    <_>
      <rects>
        <_>
          2 17 6 2 -1.</_>
        <_>
          5 17 3 2 2.</_></rects>
      <tilted>0</tilted></_>
    <_>
      <rects>
        <_>
          3 0 15 1 -1.</_>
        <_>
          8 0 5 1 3.</_></rects>
      <tilted>0</tilted></_>
    <_>
      <rects>
        <_>
          3 0 16 20 -1.</_>
        <_>
          3 0 8 10 2.</_>
        <_>
          11 10 8 10 2.</_></rects>
      <tilted>0</tilted></_>
    <_>
      <rects>
        <_>
          3 0 14 10 -1.</_>
        <_>
          3 5 14 5 2.</_></rects>
      <tilted>0</tilted></_>
    <_>
      <rects>
        <_>
          3 4 16 2 -1.</_>
        <_>
          3 4 8 1 2.</_>
        <_>
          11 5 8 1 2.</_></rects>
      <tilted>0</tilted></_>
    <_>
      <rects>
        <_>
          3 7 12 6 -1.</_>
        <_>
          3 9 12 2 3.</_></rects>
      <tilted>0</tilted></_>
    <_>
      <rects>
        <_>
          3 7 13 6 -1.</_>
        <_>
          3 9 13 2 3.</_></rects>
      <tilted>0</tilted></_>
    <_>
      <rects>
        <_>
          3 15 10 2 -1.</_>
        <_>
          3 15 5 1 2.</_>
        <_>
          8 16 5 1 2.</_></rects>
      <tilted>0</tilted></_>
    <_>
      <rects>
        <_>
          3 19 15 1 -1.</_>
        <_>
          8 19 5 1 3.</_></rects>
      <tilted>0</tilted></_>
    <_>
      <rects>
        <_>
          4 2 4 1 -1.</_>
        <_>
          6 2 2 1 2.</_></rects>
      <tilted>0</tilted></_>
    <_>
      <rects>
        <_>
          4 8 9 6 -1.</_>
        <_>
          4 10 9 2 3.</_></rects>
      <tilted>0</tilted></_>
    <_>
      <rects>
        <_>
          4 10 13 4 -1.</_>
        <_>
          4 12 13 2 2.</_></rects>
      <tilted>0</tilted></_>
    <_>
      <rects>
        <_>
          4 14 16 2 -1.</_>
        <_>
          4 15 16 1 2.</_></rects>
      <tilted>0</tilted></_>
    <_>
      <rects>
        <_>
          5 2 1 18 -1.</_>
        <_>
          5 8 1 6 3.</_></rects>
      <tilted>0</tilted></_>
    <_>
      <rects>
        <_>
          5 4 7 6 -1.</_>
        <_>
          5 6 7 2 3.</_></rects>
      <tilted>0</tilted></_>
    <_>
      <rects>
        <_>
          5 4 12 12 -1.</_>
        <_>
          5 10 12 6 2.</_></rects>
      <tilted>0</tilted></_>
    <_>
      <rects>
        <_>
          5 7 2 8 -1.</_>
        <_>
          5 7 1 4 2.</_>
        <_>
          6 11 1 4 2.</_></rects>
      <tilted>0</tilted></_>
    <_>
      <rects>
        <_>
          5 7 15 7 -1.</_>
        <_>
          10 7 5 7 3.</_></rects>
      <tilted>0</tilted></_>
    <_>
      <rects>
        <_>
          5 12 8 8 -1.</_>
        <_>
          5 16 8 4 2.</_></rects>
      <tilted>0</tilted></_>
    <_>
      <rects>
        <_>
          6 10 6 10 -1.</_>
        <_>
          6 10 3 5 2.</_>
        <_>
          9 15 3 5 2.</_></rects>
      <tilted>0</tilted></_>
    <_>
      <rects>
        <_>
          7 0 12 20 -1.</_>
        <_>
          7 0 6 10 2.</_>
        <_>
          13 10 6 10 2.</_></rects>
      <tilted>0</tilted></_>
    <_>
      <rects>
        <_>
          7 7 2 6 -1.</_>
        <_>
          7 7 1 3 2.</_>
        <_>
          8 10 1 3 2.</_></rects>
      <tilted>0</tilted></_>
    <_>
      <rects>
        <_>
          7 8 2 6 -1.</_>
        <_>
          7 8 1 3 2.</_>
        <_>
          8 11 1 3 2.</_></rects>
      <tilted>0</tilted></_>
    <_>
      <rects>
        <_>
          7 9 2 6 -1.</_>
        <_>
          7 9 1 3 2.</_>
        <_>
          8 12 1 3 2.</_></rects>
      <tilted>0</tilted></_>
    <_>
      <rects>
        <_>
          7 9 4 4 -1.</_>
        <_>
          7 9 2 2 2.</_>
        <_>
          9 11 2 2 2.</_></rects>
      <tilted>0</tilted></_>
    <_>
      <rects>
        <_>
          7 9 6 4 -1.</_>
        <_>
          7 9 3 2 2.</_>
        <_>
          10 11 3 2 2.</_></rects>
      <tilted>0</tilted></_>
    <_>
      <rects>
        <_>
          7 10 6 2 -1.</_>
        <_>
          7 10 3 1 2.</_>
        <_>
          10 11 3 1 2.</_></rects>
      <tilted>0</tilted></_>
    <_>
      <rects>
        <_>
          7 10 6 10 -1.</_>
        <_>
          7 10 3 5 2.</_>
        <_>
          10 15 3 5 2.</_></rects>
      <tilted>0</tilted></_>
    <_>
      <rects>
        <_>
          7 12 10 2 -1.</_>
        <_>
          7 12 5 1 2.</_>
        <_>
          12 13 5 1 2.</_></rects>
      <tilted>0</tilted></_>
    <_>
      <rects>
        <_>
          7 19 12 1 -1.</_>
        <_>
          13 19 6 1 2.</_></rects>
      <tilted>0</tilted></_>
    <_>
      <rects>
        <_>
          8 10 8 4 -1.</_>
        <_>
          8 10 4 2 2.</_>
        <_>
          12 12 4 2 2.</_></rects>
      <tilted>0</tilted></_>
    <_>
      <rects>
        <_>
          8 12 12 7 -1.</_>
        <_>
          14 12 6 7 2.</_></rects>
      <tilted>0</tilted></_>
    <_>
      <rects>
        <_>
          9 0 6 12 -1.</_>
        <_>
          9 0 3 6 2.</_>
        <_>
          12 6 3 6 2.</_></rects>
      <tilted>0</tilted></_>
    <_>
      <rects>
        <_>
          9 1 8 8 -1.</_>
        <_>
          9 1 4 4 2.</_>
        <_>
          13 5 4 4 2.</_></rects>
      <tilted>0</tilted></_>
    <_>
      <rects>
        <_>
          9 3 10 15 -1.</_>
        <_>
          9 8 10 5 3.</_></rects>
      <tilted>0</tilted></_>
    <_>
      <rects>
        <_>
          9 4 11 2 -1.</_>
        <_>
          9 5 11 1 2.</_></rects>
      <tilted>0</tilted></_>
    <_>
      <rects>
        <_>
          9 10 6 10 -1.</_>
        <_>
          9 10 3 5 2.</_>
        <_>
          12 15 3 5 2.</_></rects>
      <tilted>0</tilted></_>
    <_>
      <rects>
        <_>
          9 12 8 8 -1.</_>
        <_>
          9 12 4 4 2.</_>
        <_>
          13 16 4 4 2.</_></rects>
      <tilted>0</tilted></_>
    <_>
      <rects>
        <_>
          9 12 7 8 -1.</_>
        <_>
          9 16 7 4 2.</_></rects>
      <tilted>0</tilted></_>
    <_>
      <rects>
        <_>
          10 1 10 9 -1.</_>
        <_>
          15 1 5 9 2.</_></rects>
      <tilted>0</tilted></_>
    <_>
      <rects>
        <_>
          10 7 2 9 -1.</_>
        <_>
          10 10 2 3 3.</_></rects>
      <tilted>0</tilted></_>
    <_>
      <rects>
        <_>
          10 8 10 4 -1.</_>
        <_>
          10 8 5 2 2.</_>
        <_>
          15 10 5 2 2.</_></rects>
      <tilted>0</tilted></_>
    <_>
      <rects>
        <_>
          10 8 10 8 -1.</_>
        <_>
          10 8 5 4 2.</_>
        <_>
          15 12 5 4 2.</_></rects>
      <tilted>0</tilted></_>
    <_>
      <rects>
        <_>
          10 9 4 4 -1.</_>
        <_>
          10 9 2 2 2.</_>
        <_>
          12 11 2 2 2.</_></rects>
      <tilted>0</tilted></_>
    <_>
      <rects>
        <_>
          10 12 9 8 -1.</_>
        <_>
          10 16 9 4 2.</_></rects>
      <tilted>0</tilted></_>
    <_>
      <rects>
        <_>
          11 0 8 12 -1.</_>
        <_>
          11 6 8 6 2.</_></rects>
      <tilted>0</tilted></_>
    <_>
      <rects>
        <_>
          11 1 8 3 -1.</_>
        <_>
          15 1 4 3 2.</_></rects>
      <tilted>0</tilted></_>
    <_>
      <rects>
        <_>
          12 0 6 20 -1.</_>
        <_>
          12 0 3 10 2.</_>
        <_>
          15 10 3 10 2.</_></rects>
      <tilted>0</tilted></_>
    <_>
      <rects>
        <_>
          12 0 6 10 -1.</_>
        <_>
          12 5 6 5 2.</_></rects>
      <tilted>0</tilted></_>
    <_>
      <rects>
        <_>
          12 4 2 16 -1.</_>
        <_>
          12 4 1 8 2.</_>
        <_>
          13 12 1 8 2.</_></rects>
      <tilted>0</tilted></_>
    <_>
      <rects>
        <_>
          12 4 8 6 -1.</_>
        <_>
          16 4 4 6 2.</_></rects>
      <tilted>0</tilted></_>
    <_>
      <rects>
        <_>
          12 7 8 13 -1.</_>
        <_>
          16 7 4 13 2.</_></rects>
      <tilted>0</tilted></_>
    <_>
      <rects>
        <_>
          12 11 2 4 -1.</_>
        <_>
          12 11 1 2 2.</_>
        <_>
          13 13 1 2 2.</_></rects>
      <tilted>0</tilted></_>
    <_>
      <rects>
        <_>
          12 12 4 8 -1.</_>
        <_>
          12 16 4 4 2.</_></rects>
      <tilted>0</tilted></_>
    <_>
      <rects>
        <_>
          12 16 8 4 -1.</_>
        <_>
          12 16 4 2 2.</_>
        <_>
          16 18 4 2 2.</_></rects>
      <tilted>0</tilted></_>
    <_>
      <rects>
        <_>
          13 0 2 2 -1.</_>
        <_>
          13 0 1 1 2.</_>
        <_>
          14 1 1 1 2.</_></rects>
      <tilted>0</tilted></_>
    <_>
      <rects>
        <_>
          13 0 4 3 -1.</_>
        <_>
          15 0 2 3 2.</_></rects>
      <tilted>0</tilted></_>
    <_>
      <rects>
        <_>
          13 7 2 10 -1.</_>
        <_>
          13 7 1 5 2.</_>
        <_>
          14 12 1 5 2.</_></rects>
      <tilted>0</tilted></_>
    <_>
      <rects>
        <_>
          13 18 6 2 -1.</_>
        <_>
          16 18 3 2 2.</_></rects>
      <tilted>0</tilted></_>
    <_>
      <rects>
        <_>
          14 2 2 14 -1.</_>
        <_>
          14 2 1 7 2.</_>
        <_>
          15 9 1 7 2.</_></rects>
      <tilted>0</tilted></_>
    <_>
      <rects>
        <_>
          14 3 6 7 -1.</_>
        <_>
          17 3 3 7 2.</_></rects>
      <tilted>0</tilted></_>
    <_>
      <rects>
        <_>
          14 5 2 8 -1.</_>
        <_>
          15 5 1 8 2.</_></rects>
      <tilted>0</tilted></_>
    <_>
      <rects>
        <_>
          14 5 6 7 -1.</_>
        <_>
          17 5 3 7 2.</_></rects>
      <tilted>0</tilted></_>
    <_>
      <rects>
        <_>
          14 5 6 12 -1.</_>
        <_>
          17 5 3 12 2.</_></rects>
      <tilted>0</tilted></_>
    <_>
      <rects>
        <_>
          14 6 6 6 -1.</_>
        <_>
          14 6 3 3 2.</_>
        <_>
          17 9 3 3 2.</_></rects>
      <tilted>0</tilted></_>
    <_>
      <rects>
        <_>
          15 2 4 16 -1.</_>
        <_>
          15 2 2 8 2.</_>
        <_>
          17 10 2 8 2.</_></rects>
      <tilted>0</tilted></_>
    <_>
      <rects>
        <_>
          15 6 4 5 -1.</_>
        <_>
          17 6 2 5 2.</_></rects>
      <tilted>0</tilted></_>
    <_>
      <rects>
        <_>
          16 6 2 12 -1.</_>
        <_>
          16 6 1 6 2.</_>
        <_>
          17 12 1 6 2.</_></rects>
      <tilted>0</tilted></_>
    <_>
      <rects>
        <_>
          16 8 4 8 -1.</_>
        <_>
          16 8 2 4 2.</_>
        <_>
          18 12 2 4 2.</_></rects>
      <tilted>0</tilted></_>
    <_>
      <rects>
        <_>
          16 16 2 3 -1.</_>
        <_>
          17 16 1 3 2.</_></rects>
      <tilted>0</tilted></_>
    <_>
      <rects>
        <_>
          18 16 2 4 -1.</_>
        <_>
          18 18 2 2 2.</_></rects>
      <tilted>0</tilted></_></features></cascade>
</opencv_storage>
