<?xml version="1.0"?>
<opencv_storage>
<stage15>
  <maxWeakCount>9</maxWeakCount>
  <stageThreshold>-1.3594468832015991e+00</stageThreshold>
  <weakClassifiers>
    <_>
      <internalNodes>
        0 -1 14581 1.3586100976681337e-05</internalNodes>
      <leafValues>
        1.5384615957736969e-01 -6.4480876922607422e-01</leafValues></_>
    <_>
      <internalNodes>
        0 -1 61184 1.0279606096446514e-02</internalNodes>
      <leafValues>
        -4.9334269762039185e-01 2.8921353816986084e-01</leafValues></_>
    <_>
      <internalNodes>
        0 -1 24346 -9.1565202455967665e-04</internalNodes>
      <leafValues>
        -8.8411515951156616e-01 1.6904443502426147e-01</leafValues></_>
    <_>
      <internalNodes>
        0 -1 14598 -1.3472620594257023e-05</internalNodes>
      <leafValues>
        -9.2636936902999878e-01 1.7666178941726685e-01</leafValues></_>
    <_>
      <internalNodes>
        0 -1 58043 1.1816832702606916e-03</internalNodes>
      <leafValues>
        -4.2050144076347351e-01 3.5964438319206238e-01</leafValues></_>
    <_>
      <internalNodes>
        0 -1 7622 1.3628863598569296e-05</internalNodes>
      <leafValues>
        -2.9041051864624023e-01 5.0851678848266602e-01</leafValues></_>
    <_>
      <internalNodes>
        0 -1 7460 -9.1956055257469416e-05</internalNodes>
      <leafValues>
        -9.4000893831253052e-01 1.7905092239379883e-01</leafValues></_>
    <_>
      <internalNodes>
        0 -1 65909 -1.0295251384377480e-02</internalNodes>
      <leafValues>
        -7.1169745922088623e-01 1.3901935517787933e-01</leafValues></_>
    <_>
      <internalNodes>
        0 -1 56026 -1.8566834926605225e-01</internalNodes>
      <leafValues>
        -8.5163992643356323e-01 1.9810450077056885e-01</leafValues></_></weakClassifiers></stage15>
</opencv_storage>
