<?xml version="1.0"?>
<opencv_storage>
<stage4>
  <maxWeakCount>7</maxWeakCount>
  <stageThreshold>-1.3652414083480835e+00</stageThreshold>
  <weakClassifiers>
    <_>
      <internalNodes>
        0 -1 68308 2.9189819470047951e-02</internalNodes>
      <leafValues>
        -7.6836156845092773e-01 2.9268291592597961e-01</leafValues></_>
    <_>
      <internalNodes>
        0 -1 35284 -8.0209951847791672e-03</internalNodes>
      <leafValues>
        3.3400836586952209e-01 -7.2157186269760132e-01</leafValues></_>
    <_>
      <internalNodes>
        0 -1 66838 -4.2413850314915180e-04</internalNodes>
      <leafValues>
        -8.3117872476577759e-01 2.6639571785926819e-01</leafValues></_>
    <_>
      <internalNodes>
        0 -1 14368 1.3335456969798543e-05</internalNodes>
      <leafValues>
        -6.4577400684356689e-01 3.5998538136482239e-01</leafValues></_>
    <_>
      <internalNodes>
        0 -1 368 -6.2112353742122650e-02</internalNodes>
      <leafValues>
        3.2257387042045593e-01 -8.2685947418212891e-01</leafValues></_>
    <_>
      <internalNodes>
        0 -1 732 -1.1384741216897964e-01</internalNodes>
      <leafValues>
        2.0933166146278381e-01 -8.9441347122192383e-01</leafValues></_>
    <_>
      <internalNodes>
        0 -1 70163 -1.1889311717823148e-03</internalNodes>
      <leafValues>
        -9.7768622636795044e-01 1.5783295035362244e-01</leafValues></_></weakClassifiers></stage4>
</opencv_storage>
