<?xml version="1.0"?>
<opencv_storage>
<stage13>
  <maxWeakCount>9</maxWeakCount>
  <stageThreshold>-1.4875710010528564e+00</stageThreshold>
  <weakClassifiers>
    <_>
      <internalNodes>
        0 -1 25717 2.2135707736015320e-01</internalNodes>
      <leafValues>
        -4.8496240377426147e-01 8.5294115543365479e-01</leafValues></_>
    <_>
      <internalNodes>
        0 -1 62707 -3.8277380168437958e-02</internalNodes>
      <leafValues>
        1.6658210754394531e-01 -9.1156953573226929e-01</leafValues></_>
    <_>
      <internalNodes>
        0 -1 32247 1.2476662546396255e-01</internalNodes>
      <leafValues>
        -2.3715777695178986e-01 7.7188557386398315e-01</leafValues></_>
    <_>
      <internalNodes>
        0 -1 5061 -1.5375390648841858e-02</internalNodes>
      <leafValues>
        6.3043564558029175e-01 -2.4857828021049500e-01</leafValues></_>
    <_>
      <internalNodes>
        0 -1 37646 -1.4739817380905151e-01</internalNodes>
      <leafValues>
        -8.3878898620605469e-01 2.7259761095046997e-01</leafValues></_>
    <_>
      <internalNodes>
        0 -1 66965 2.1233301609754562e-02</internalNodes>
      <leafValues>
        -7.4432313442230225e-01 1.5419846773147583e-01</leafValues></_>
    <_>
      <internalNodes>
        0 -1 11031 4.5685895020142198e-04</internalNodes>
      <leafValues>
        1.7033132910728455e-01 -8.3366745710372925e-01</leafValues></_>
    <_>
      <internalNodes>
        0 -1 3328 1.3211746590968687e-05</internalNodes>
      <leafValues>
        -4.2505717277526855e-01 3.9133933186531067e-01</leafValues></_>
    <_>
      <internalNodes>
        0 -1 16459 -1.5166102349758148e-01</internalNodes>
      <leafValues>
        -7.0549625158309937e-01 2.2262676060199738e-01</leafValues></_></weakClassifiers></stage13>
</opencv_storage>
