<?xml version="1.0"?>
<opencv_storage>
<stage17>
  <maxWeakCount>9</maxWeakCount>
  <stageThreshold>-1.3305861949920654e+00</stageThreshold>
  <weakClassifiers>
    <_>
      <internalNodes>
        0 -1 7188 1.3747744560532738e-05</internalNodes>
      <leafValues>
        -7.0793652534484863e-01 8.0701753497123718e-02</leafValues></_>
    <_>
      <internalNodes>
        0 -1 2858 1.2049466371536255e-02</internalNodes>
      <leafValues>
        9.2199772596359253e-02 -8.6829864978790283e-01</leafValues></_>
    <_>
      <internalNodes>
        0 -1 72482 -2.8204885311424732e-03</internalNodes>
      <leafValues>
        4.5864364504814148e-01 -3.6042988300323486e-01</leafValues></_>
    <_>
      <internalNodes>
        0 -1 71668 -1.6679572872817516e-03</internalNodes>
      <leafValues>
        -9.1412264108657837e-01 1.6259945929050446e-01</leafValues></_>
    <_>
      <internalNodes>
        0 -1 1428 -4.0842705965042114e-01</internalNodes>
      <leafValues>
        -9.8153018951416016e-01 1.0301510989665985e-01</leafValues></_>
    <_>
      <internalNodes>
        0 -1 7130 4.0530797559767962e-04</internalNodes>
      <leafValues>
        3.4646350145339966e-01 -4.8209965229034424e-01</leafValues></_>
    <_>
      <internalNodes>
        0 -1 33798 -4.3261289829388261e-04</internalNodes>
      <leafValues>
        -8.3786422014236450e-01 1.8013882637023926e-01</leafValues></_>
    <_>
      <internalNodes>
        0 -1 6687 -1.3150845916243270e-05</internalNodes>
      <leafValues>
        4.6957609057426453e-01 -3.1879648566246033e-01</leafValues></_>
    <_>
      <internalNodes>
        0 -1 73924 -9.5039019361138344e-03</internalNodes>
      <leafValues>
        -8.4721577167510986e-01 1.3265846669673920e-01</leafValues></_></weakClassifiers></stage17>
</opencv_storage>
