<?xml version="1.0"?>
<opencv_storage>
<stage11>
  <maxWeakCount>7</maxWeakCount>
  <stageThreshold>-9.7612965106964111e-01</stageThreshold>
  <weakClassifiers>
    <_>
      <internalNodes>
        0 -1 76243 5.5918134748935699e-03</internalNodes>
      <leafValues>
        -5.6097561120986938e-01 2.4675324559211731e-01</leafValues></_>
    <_>
      <internalNodes>
        0 -1 1462 -1.4829792235104833e-05</internalNodes>
      <leafValues>
        2.9668876528739929e-01 -5.3704881668090820e-01</leafValues></_>
    <_>
      <internalNodes>
        0 -1 2811 2.3665178567171097e-02</internalNodes>
      <leafValues>
        1.8209582567214966e-01 -8.9323997497558594e-01</leafValues></_>
    <_>
      <internalNodes>
        0 -1 630 -5.0432584248483181e-03</internalNodes>
      <leafValues>
        2.8087589144706726e-01 -5.9305375814437866e-01</leafValues></_>
    <_>
      <internalNodes>
        0 -1 19115 -1.1100449413061142e-01</internalNodes>
      <leafValues>
        7.0774847269058228e-01 -2.4102684855461121e-01</leafValues></_>
    <_>
      <internalNodes>
        0 -1 19086 7.1782052516937256e-02</internalNodes>
      <leafValues>
        -2.4173603951931000e-01 6.6603916883468628e-01</leafValues></_>
    <_>
      <internalNodes>
        0 -1 77865 1.1189326643943787e-02</internalNodes>
      <leafValues>
        1.8187798559665680e-01 -9.2078346014022827e-01</leafValues></_></weakClassifiers></stage11>
</opencv_storage>
