<?xml version="1.0"?>
<opencv_storage>
<stage16>
  <maxWeakCount>9</maxWeakCount>
  <stageThreshold>-1.0429253578186035e+00</stageThreshold>
  <weakClassifiers>
    <_>
      <internalNodes>
        0 -1 18802 2.7997442521154881e-03</internalNodes>
      <leafValues>
        -5.4786151647567749e-01 2.2330096364021301e-01</leafValues></_>
    <_>
      <internalNodes>
        0 -1 7384 7.0978933945298195e-03</internalNodes>
      <leafValues>
        -4.3950769305229187e-01 2.8461241722106934e-01</leafValues></_>
    <_>
      <internalNodes>
        0 -1 14171 1.7346130334772170e-04</internalNodes>
      <leafValues>
        -5.4527318477630615e-01 2.6727876067161560e-01</leafValues></_>
    <_>
      <internalNodes>
        0 -1 31160 4.8842623829841614e-02</internalNodes>
      <leafValues>
        -2.8661471605300903e-01 4.0824759006500244e-01</leafValues></_>
    <_>
      <internalNodes>
        0 -1 64964 5.0378794549033046e-04</internalNodes>
      <leafValues>
        1.6409729421138763e-01 -6.6416281461715698e-01</leafValues></_>
    <_>
      <internalNodes>
        0 -1 77350 1.4100249973125756e-04</internalNodes>
      <leafValues>
        -4.7790014743804932e-01 2.8914695978164673e-01</leafValues></_>
    <_>
      <internalNodes>
        0 -1 737 2.7422171086072922e-02</internalNodes>
      <leafValues>
        1.1924110352993011e-01 -8.4084624052047729e-01</leafValues></_>
    <_>
      <internalNodes>
        0 -1 50743 -1.2769274413585663e-02</internalNodes>
      <leafValues>
        -7.5637543201446533e-01 1.4636805653572083e-01</leafValues></_>
    <_>
      <internalNodes>
        0 -1 10851 1.0483224468771368e-04</internalNodes>
      <leafValues>
        -4.3693032860755920e-01 2.7719852328300476e-01</leafValues></_></weakClassifiers></stage16>
</opencv_storage>
