<?xml version="1.0"?>
<opencv_storage>
<stage14>
  <maxWeakCount>9</maxWeakCount>
  <stageThreshold>-1.1462085247039795e+00</stageThreshold>
  <weakClassifiers>
    <_>
      <internalNodes>
        0 -1 5684 6.4299125224351883e-03</internalNodes>
      <leafValues>
        -6.3054186105728149e-01 1.4213198423385620e-01</leafValues></_>
    <_>
      <internalNodes>
        0 -1 21747 8.0020516179502010e-04</internalNodes>
      <leafValues>
        -5.4042029380798340e-01 3.1001093983650208e-01</leafValues></_>
    <_>
      <internalNodes>
        0 -1 54476 6.4656459726393223e-03</internalNodes>
      <leafValues>
        -3.6138063669204712e-01 4.3986219167709351e-01</leafValues></_>
    <_>
      <internalNodes>
        0 -1 34699 -6.2979042530059814e-02</internalNodes>
      <leafValues>
        3.2532498240470886e-01 -5.3159189224243164e-01</leafValues></_>
    <_>
      <internalNodes>
        0 -1 5710 1.4578391528630164e-05</internalNodes>
      <leafValues>
        -5.3611981868743896e-01 2.6868751645088196e-01</leafValues></_>
    <_>
      <internalNodes>
        0 -1 37542 1.6535990871489048e-03</internalNodes>
      <leafValues>
        2.8385308384895325e-01 -5.4516190290451050e-01</leafValues></_>
    <_>
      <internalNodes>
        0 -1 5292 -1.1824271082878113e-01</internalNodes>
      <leafValues>
        -9.4688987731933594e-01 9.4579324126243591e-02</leafValues></_>
    <_>
      <internalNodes>
        0 -1 52653 -9.1464351862668991e-04</internalNodes>
      <leafValues>
        -7.3734080791473389e-01 1.3417351245880127e-01</leafValues></_>
    <_>
      <internalNodes>
        0 -1 7665 1.2254414614289999e-03</internalNodes>
      <leafValues>
        1.7664092779159546e-01 -6.6481006145477295e-01</leafValues></_></weakClassifiers></stage14>
</opencv_storage>
