<?xml version="1.0"?>
<opencv_storage>
<stage18>
  <maxWeakCount>9</maxWeakCount>
  <stageThreshold>-1.5164862871170044e+00</stageThreshold>
  <weakClassifiers>
    <_>
      <internalNodes>
        0 -1 14598 1.6135965779540129e-05</internalNodes>
      <leafValues>
        2.5000000000000000e-01 -6.4285713434219360e-01</leafValues></_>
    <_>
      <internalNodes>
        0 -1 2961 -5.0601948052644730e-02</internalNodes>
      <leafValues>
        2.3546311259269714e-01 -6.2390547990798950e-01</leafValues></_>
    <_>
      <internalNodes>
        0 -1 37468 2.9608118347823620e-04</internalNodes>
      <leafValues>
        1.6741266846656799e-01 -7.7645236253738403e-01</leafValues></_>
    <_>
      <internalNodes>
        0 -1 56341 5.3839525207877159e-04</internalNodes>
      <leafValues>
        1.1585812270641327e-01 -1.</leafValues></_>
    <_>
      <internalNodes>
        0 -1 17224 -3.3857027301564813e-04</internalNodes>
      <leafValues>
        -4.9029332399368286e-01 2.5471320748329163e-01</leafValues></_>
    <_>
      <internalNodes>
        0 -1 71975 1.9713288929779083e-04</internalNodes>
      <leafValues>
        -7.8803467750549316e-01 1.8977093696594238e-01</leafValues></_>
    <_>
      <internalNodes>
        0 -1 29267 1.3901879356126301e-05</internalNodes>
      <leafValues>
        -2.5523316860198975e-01 6.3997220993041992e-01</leafValues></_>
    <_>
      <internalNodes>
        0 -1 563 -4.4816819718107581e-04</internalNodes>
      <leafValues>
        -4.2870157957077026e-01 3.3031564950942993e-01</leafValues></_>
    <_>
      <internalNodes>
        0 -1 62923 4.4365203939378262e-04</internalNodes>
      <leafValues>
        4.2560622096061707e-01 -3.5924625396728516e-01</leafValues></_></weakClassifiers></stage18>
</opencv_storage>
