<?xml version="1.0"?>
<opencv_storage>
<stage19>
  <maxWeakCount>7</maxWeakCount>
  <stageThreshold>-8.8683044910430908e-01</stageThreshold>
  <weakClassifiers>
    <_>
      <internalNodes>
        0 -1 55209 -1.0692001320421696e-02</internalNodes>
      <leafValues>
        1.8483412265777588e-01 -6.1439591646194458e-01</leafValues></_>
    <_>
      <internalNodes>
        0 -1 76169 -1.5458828784176148e-05</internalNodes>
      <leafValues>
        -5.9661704301834106e-01 2.8592860698699951e-01</leafValues></_>
    <_>
      <internalNodes>
        0 -1 21612 -3.1430092349182814e-05</internalNodes>
      <leafValues>
        -4.9909061193466187e-01 2.8598695993423462e-01</leafValues></_>
    <_>
      <internalNodes>
        0 -1 5816 -2.1221395581960678e-02</internalNodes>
      <leafValues>
        2.6663082838058472e-01 -7.2461420297622681e-01</leafValues></_>
    <_>
      <internalNodes>
        0 -1 14302 3.3705215901136398e-04</internalNodes>
      <leafValues>
        3.8779595494270325e-01 -4.8553144931793213e-01</leafValues></_>
    <_>
      <internalNodes>
        0 -1 43895 2.3538494482636452e-02</internalNodes>
      <leafValues>
        -1.6384494304656982e-01 9.0924090147018433e-01</leafValues></_>
    <_>
      <internalNodes>
        0 -1 74424 1.0958379134535789e-02</internalNodes>
      <leafValues>
        -3.4346753358840942e-01 4.2094108462333679e-01</leafValues></_></weakClassifiers></stage19>
</opencv_storage>
