<?xml version="1.0"?>
<opencv_storage>
<stage11>
  <maxWeakCount>6</maxWeakCount>
  <stageThreshold>-1.3904159069061279e+00</stageThreshold>
  <weakClassifiers>
    <_>
      <internalNodes>
        0 -1 32903 -6.6940076649188995e-02</internalNodes>
      <leafValues>
        5.8928573131561279e-01 -5.4508197307586670e-01</leafValues></_>
    <_>
      <internalNodes>
        0 -1 27720 2.6225892361253500e-04</internalNodes>
      <leafValues>
        3.0347231030464172e-01 -6.6900712251663208e-01</leafValues></_>
    <_>
      <internalNodes>
        0 -1 48581 3.4198071807622910e-04</internalNodes>
      <leafValues>
        2.9693484306335449e-01 -7.0889723300933838e-01</leafValues></_>
    <_>
      <internalNodes>
        0 -1 15721 -2.0337397232651711e-02</internalNodes>
      <leafValues>
        2.2804684937000275e-01 -8.3901536464691162e-01</leafValues></_>
    <_>
      <internalNodes>
        0 -1 7393 -1.3093356756144203e-05</internalNodes>
      <leafValues>
        -8.0279046297073364e-01 1.9397196173667908e-01</leafValues></_>
    <_>
      <internalNodes>
        0 -1 75950 3.5337597364559770e-04</internalNodes>
      <leafValues>
        1.3483460247516632e-01 -8.7893748283386230e-01</leafValues></_></weakClassifiers></stage11>
</opencv_storage>
