<?xml version="1.0"?>
<opencv_storage>
<stage16>
  <maxWeakCount>7</maxWeakCount>
  <stageThreshold>-1.1989489793777466e+00</stageThreshold>
  <weakClassifiers>
    <_>
      <internalNodes>
        0 -1 28911 -3.6136798560619354e-02</internalNodes>
      <leafValues>
        1.7948718369007111e-01 -5.8024692535400391e-01</leafValues></_>
    <_>
      <internalNodes>
        0 -1 5710 1.3648205822391901e-05</internalNodes>
      <leafValues>
        -5.7771873474121094e-01 2.3201455175876617e-01</leafValues></_>
    <_>
      <internalNodes>
        0 -1 39616 1.2946577044203877e-04</internalNodes>
      <leafValues>
        -8.1265199184417725e-01 1.6067451238632202e-01</leafValues></_>
    <_>
      <internalNodes>
        0 -1 5225 5.2731093019247055e-02</internalNodes>
      <leafValues>
        -2.0334212481975555e-01 7.4752485752105713e-01</leafValues></_>
    <_>
      <internalNodes>
        0 -1 67027 1.0540050454437733e-02</internalNodes>
      <leafValues>
        -3.2849705219268799e-01 4.9008378386497498e-01</leafValues></_>
    <_>
      <internalNodes>
        0 -1 78355 3.9934462984092534e-04</internalNodes>
      <leafValues>
        1.9662438333034515e-01 -8.4772419929504395e-01</leafValues></_>
    <_>
      <internalNodes>
        0 -1 4708 4.0195140987634659e-02</internalNodes>
      <leafValues>
        1.3355696201324463e-01 -8.1001901626586914e-01</leafValues></_></weakClassifiers></stage16>
</opencv_storage>
