<?xml version="1.0"?>
<opencv_storage>
<stage17>
  <maxWeakCount>9</maxWeakCount>
  <stageThreshold>-1.1018085479736328e+00</stageThreshold>
  <weakClassifiers>
    <_>
      <internalNodes>
        0 -1 71736 -1.3150162994861603e-02</internalNodes>
      <leafValues>
        2.6627218723297119e-01 -5.6844550371170044e-01</leafValues></_>
    <_>
      <internalNodes>
        0 -1 330 -5.1623275503516197e-03</internalNodes>
      <leafValues>
        2.6702934503555298e-01 -6.1691272258758545e-01</leafValues></_>
    <_>
      <internalNodes>
        0 -1 396 -1.6292154788970947e-02</internalNodes>
      <leafValues>
        -8.4889453649520874e-01 1.6010776162147522e-01</leafValues></_>
    <_>
      <internalNodes>
        0 -1 76199 -2.4625322112115100e-05</internalNodes>
      <leafValues>
        -8.0421727895736694e-01 1.9970445334911346e-01</leafValues></_>
    <_>
      <internalNodes>
        0 -1 31891 4.0569998323917389e-02</internalNodes>
      <leafValues>
        -2.2802296280860901e-01 7.2980087995529175e-01</leafValues></_>
    <_>
      <internalNodes>
        0 -1 14148 -1.4979700608819257e-05</internalNodes>
      <leafValues>
        3.8775226473808289e-01 -3.4674668312072754e-01</leafValues></_>
    <_>
      <internalNodes>
        0 -1 57162 9.0917263878509402e-04</internalNodes>
      <leafValues>
        2.2777280211448669e-01 -6.7919427156448364e-01</leafValues></_>
    <_>
      <internalNodes>
        0 -1 25763 2.4228492379188538e-01</internalNodes>
      <leafValues>
        1.7558082938194275e-01 -7.9346323013305664e-01</leafValues></_>
    <_>
      <internalNodes>
        0 -1 5616 1.4170401263982058e-03</internalNodes>
      <leafValues>
        -9.2271220684051514e-01 1.6457618772983551e-01</leafValues></_></weakClassifiers></stage17>
</opencv_storage>
