<?xml version="1.0"?>
<opencv_storage>
<stage13>
  <maxWeakCount>10</maxWeakCount>
  <stageThreshold>-1.1328099966049194e+00</stageThreshold>
  <weakClassifiers>
    <_>
      <internalNodes>
        0 -1 40703 4.4776764698326588e-03</internalNodes>
      <leafValues>
        -8.4888887405395508e-01 -2.4000000208616257e-02</leafValues></_>
    <_>
      <internalNodes>
        0 -1 44442 -2.1213863044977188e-02</internalNodes>
      <leafValues>
        2.0018963515758514e-01 -6.1317378282546997e-01</leafValues></_>
    <_>
      <internalNodes>
        0 -1 217 -1.7498452216386795e-02</internalNodes>
      <leafValues>
        3.0484446883201599e-01 -5.1165276765823364e-01</leafValues></_>
    <_>
      <internalNodes>
        0 -1 47930 2.3497891379520297e-04</internalNodes>
      <leafValues>
        2.5442740321159363e-01 -7.3248362541198730e-01</leafValues></_>
    <_>
      <internalNodes>
        0 -1 54507 1.4802954865444917e-05</internalNodes>
      <leafValues>
        3.0871888995170593e-01 -4.6366754174232483e-01</leafValues></_>
    <_>
      <internalNodes>
        0 -1 54116 -4.4561363756656647e-02</internalNodes>
      <leafValues>
        9.6628135442733765e-01 -1.9350738823413849e-01</leafValues></_>
    <_>
      <internalNodes>
        0 -1 48216 -1.6738023259676993e-04</internalNodes>
      <leafValues>
        -5.7670378684997559e-01 3.0363130569458008e-01</leafValues></_>
    <_>
      <internalNodes>
        0 -1 41428 -2.0465541630983353e-02</internalNodes>
      <leafValues>
        2.8798469901084900e-01 -5.0406855344772339e-01</leafValues></_>
    <_>
      <internalNodes>
        0 -1 6105 4.1411589336348698e-05</internalNodes>
      <leafValues>
        -5.5570310354232788e-01 2.7462023496627808e-01</leafValues></_>
    <_>
      <internalNodes>
        0 -1 42846 4.6432174742221832e-02</internalNodes>
      <leafValues>
        -2.4586607515811920e-01 6.9475072622299194e-01</leafValues></_></weakClassifiers></stage13>
</opencv_storage>
