<?xml version="1.0"?>
<opencv_storage>
<stage18>
  <maxWeakCount>11</maxWeakCount>
  <stageThreshold>-1.3197755813598633e+00</stageThreshold>
  <weakClassifiers>
    <_>
      <internalNodes>
        0 -1 7950 -6.8866531364619732e-03</internalNodes>
      <leafValues>
        -1.9718309864401817e-02 -7.8775513172149658e-01</leafValues></_>
    <_>
      <internalNodes>
        0 -1 12114 -8.4780819714069366e-02</internalNodes>
      <leafValues>
        5.7753688097000122e-01 -3.1897681951522827e-01</leafValues></_>
    <_>
      <internalNodes>
        0 -1 11041 9.4296727329492569e-03</internalNodes>
      <leafValues>
        -4.1508683562278748e-01 3.6911907792091370e-01</leafValues></_>
    <_>
      <internalNodes>
        0 -1 30940 4.4568713754415512e-02</internalNodes>
      <leafValues>
        2.2812195122241974e-01 -8.3380645513534546e-01</leafValues></_>
    <_>
      <internalNodes>
        0 -1 6683 2.8518375984276645e-05</internalNodes>
      <leafValues>
        -5.0708872079849243e-01 2.3478314280509949e-01</leafValues></_>
    <_>
      <internalNodes>
        0 -1 19560 -5.0701037049293518e-02</internalNodes>
      <leafValues>
        4.7569355368614197e-01 -2.6595193147659302e-01</leafValues></_>
    <_>
      <internalNodes>
        0 -1 10410 4.2470643529668450e-04</internalNodes>
      <leafValues>
        -3.6446070671081543e-01 4.8010995984077454e-01</leafValues></_>
    <_>
      <internalNodes>
        0 -1 1551 -8.4333475679159164e-03</internalNodes>
      <leafValues>
        -9.6423959732055664e-01 1.5875329077243805e-01</leafValues></_>
    <_>
      <internalNodes>
        0 -1 5635 4.0766689926385880e-02</internalNodes>
      <leafValues>
        -3.0365225672721863e-01 5.1315015554428101e-01</leafValues></_>
    <_>
      <internalNodes>
        0 -1 535 2.7610515826381743e-04</internalNodes>
      <leafValues>
        1.7926128208637238e-01 -8.4340226650238037e-01</leafValues></_>
    <_>
      <internalNodes>
        0 -1 16305 -9.6568167209625244e-02</internalNodes>
      <leafValues>
        -3.8580000400543213e-01 3.3518829941749573e-01</leafValues></_></weakClassifiers></stage18>
</opencv_storage>
