<?xml version="1.0"?>
<opencv_storage>
<stage6>
  <maxWeakCount>5</maxWeakCount>
  <stageThreshold>-8.8824611902236938e-01</stageThreshold>
  <weakClassifiers>
    <_>
      <internalNodes>
        0 -1 26255 -7.1132943034172058e-02</internalNodes>
      <leafValues>
        4.8453608155250549e-01 -7.2413790225982666e-01</leafValues></_>
    <_>
      <internalNodes>
        0 -1 1145 -6.5734051167964935e-02</internalNodes>
      <leafValues>
        2.5435060262680054e-01 -9.1401630640029907e-01</leafValues></_>
    <_>
      <internalNodes>
        0 -1 7005 9.8300166428089142e-05</internalNodes>
      <leafValues>
        -9.6525013446807861e-01 2.6319301128387451e-01</leafValues></_>
    <_>
      <internalNodes>
        0 -1 1584 -3.2192170619964600e-03</internalNodes>
      <leafValues>
        2.6991251111030579e-01 -8.5087418556213379e-01</leafValues></_>
    <_>
      <internalNodes>
        0 -1 52183 -2.6010900735855103e-02</internalNodes>
      <leafValues>
        -9.5156425237655640e-01 2.4809277057647705e-01</leafValues></_></weakClassifiers></stage6>
</opencv_storage>
