<?xml version="1.0"?>
<opencv_storage>
<stage16>
  <maxWeakCount>7</maxWeakCount>
  <stageThreshold>-1.3461382389068604e+00</stageThreshold>
  <weakClassifiers>
    <_>
      <internalNodes>
        0 -1 65371 -7.1143629029393196e-03</internalNodes>
      <leafValues>
        7.0731705427169800e-01 -4.9806949496269226e-01</leafValues></_>
    <_>
      <internalNodes>
        0 -1 73552 3.1133364245761186e-05</internalNodes>
      <leafValues>
        -5.8653056621551514e-01 3.2042652368545532e-01</leafValues></_>
    <_>
      <internalNodes>
        0 -1 7615 -1.6123017296195030e-02</internalNodes>
      <leafValues>
        3.7371268868446350e-01 -5.2903884649276733e-01</leafValues></_>
    <_>
      <internalNodes>
        0 -1 15590 -1.7910867929458618e-02</internalNodes>
      <leafValues>
        2.2803631424903870e-01 -8.3865362405776978e-01</leafValues></_>
    <_>
      <internalNodes>
        0 -1 70914 -1.5497074928134680e-03</internalNodes>
      <leafValues>
        5.8982586860656738e-01 -3.9238813519477844e-01</leafValues></_>
    <_>
      <internalNodes>
        0 -1 7915 -7.4230201542377472e-02</internalNodes>
      <leafValues>
        -9.3425530195236206e-01 3.2453590631484985e-01</leafValues></_>
    <_>
      <internalNodes>
        0 -1 65953 4.1049860417842865e-02</internalNodes>
      <leafValues>
        1.6909843683242798e-01 -7.9543495178222656e-01</leafValues></_></weakClassifiers></stage16>
</opencv_storage>
