<?xml version="1.0"?>
<opencv_storage>
<stage17>
  <maxWeakCount>6</maxWeakCount>
  <stageThreshold>-7.0173698663711548e-01</stageThreshold>
  <weakClassifiers>
    <_>
      <internalNodes>
        0 -1 67499 1.5286080539226532e-02</internalNodes>
      <leafValues>
        -5.0196081399917603e-01 6.2222224473953247e-01</leafValues></_>
    <_>
      <internalNodes>
        0 -1 1798 -1.6910701990127563e-02</internalNodes>
      <leafValues>
        2.1976333856582642e-01 -8.0498075485229492e-01</leafValues></_>
    <_>
      <internalNodes>
        0 -1 73015 -8.9054293930530548e-03</internalNodes>
      <leafValues>
        4.1457459330558777e-01 -4.2662128806114197e-01</leafValues></_>
    <_>
      <internalNodes>
        0 -1 76602 1.6080843124655075e-05</internalNodes>
      <leafValues>
        2.6853680610656738e-01 -7.9937469959259033e-01</leafValues></_>
    <_>
      <internalNodes>
        0 -1 61690 4.3475165963172913e-02</internalNodes>
      <leafValues>
        -3.0413106083869934e-01 7.5666701793670654e-01</leafValues></_>
    <_>
      <internalNodes>
        0 -1 68862 3.8481457158923149e-04</internalNodes>
      <leafValues>
        -7.9851990938186646e-01 2.7989712357521057e-01</leafValues></_></weakClassifiers></stage17>
</opencv_storage>
