<?xml version="1.0"?>
<opencv_storage>
<stage12>
  <maxWeakCount>5</maxWeakCount>
  <stageThreshold>-1.6748801469802856e+00</stageThreshold>
  <weakClassifiers>
    <_>
      <internalNodes>
        0 -1 20669 4.7993101179599762e-03</internalNodes>
      <leafValues>
        -5.8951967954635620e-01 4.9295774102210999e-01</leafValues></_>
    <_>
      <internalNodes>
        0 -1 6534 -9.7640171647071838e-02</internalNodes>
      <leafValues>
        -9.8760527372360229e-01 1.7849126458168030e-01</leafValues></_>
    <_>
      <internalNodes>
        0 -1 34272 -5.1623103208839893e-03</internalNodes>
      <leafValues>
        2.6297789812088013e-01 -7.2711157798767090e-01</leafValues></_>
    <_>
      <internalNodes>
        0 -1 76616 4.1874554881360382e-05</internalNodes>
      <leafValues>
        2.4642398953437805e-01 -8.2090950012207031e-01</leafValues></_>
    <_>
      <internalNodes>
        0 -1 6019 1.3527102768421173e-01</internalNodes>
      <leafValues>
        2.8416934609413147e-01 -7.8881281614303589e-01</leafValues></_></weakClassifiers></stage12>
</opencv_storage>
