<?xml version="1.0"?>
<opencv_storage>
<stage11>
  <maxWeakCount>6</maxWeakCount>
  <stageThreshold>-1.5233670473098755e+00</stageThreshold>
  <weakClassifiers>
    <_>
      <internalNodes>
        0 -1 34375 -2.2091932594776154e-01</internalNodes>
      <leafValues>
        3.9664804935455322e-01 -6.4370548725128174e-01</leafValues></_>
    <_>
      <internalNodes>
        0 -1 305 2.3439176380634308e-02</internalNodes>
      <leafValues>
        1.6816103458404541e-01 -9.6119189262390137e-01</leafValues></_>
    <_>
      <internalNodes>
        0 -1 5743 4.1473678720649332e-05</internalNodes>
      <leafValues>
        -9.1137057542800903e-01 1.8077324330806732e-01</leafValues></_>
    <_>
      <internalNodes>
        0 -1 35163 -1.4346280694007874e-01</internalNodes>
      <leafValues>
        -9.6426361799240112e-01 1.7498171329498291e-01</leafValues></_>
    <_>
      <internalNodes>
        0 -1 65320 6.9684488698840141e-03</internalNodes>
      <leafValues>
        -8.5926985740661621e-01 2.2394970059394836e-01</leafValues></_>
    <_>
      <internalNodes>
        0 -1 2783 -7.6846386946272105e-05</internalNodes>
      <leafValues>
        -5.4430776834487915e-01 3.8752055168151855e-01</leafValues></_></weakClassifiers></stage11>
</opencv_storage>
