<?xml version="1.0"?>
<opencv_storage>
<stage17>
  <maxWeakCount>9</maxWeakCount>
  <stageThreshold>-1.3680348396301270e+00</stageThreshold>
  <weakClassifiers>
    <_>
      <internalNodes>
        0 -1 17730 6.9977685809135437e-02</internalNodes>
      <leafValues>
        -4.5333333313465118e-02 -8.1333333253860474e-01</leafValues></_>
    <_>
      <internalNodes>
        0 -1 78411 -2.8173116152174771e-04</internalNodes>
      <leafValues>
        -1. 6.4746916294097900e-02</leafValues></_>
    <_>
      <internalNodes>
        0 -1 52116 -3.0900174751877785e-03</internalNodes>
      <leafValues>
        -8.9087188243865967e-01 1.0968137532472610e-01</leafValues></_>
    <_>
      <internalNodes>
        0 -1 43703 -1.9720527343451977e-03</internalNodes>
      <leafValues>
        2.4567319452762604e-01 -5.2027606964111328e-01</leafValues></_>
    <_>
      <internalNodes>
        0 -1 7651 -1.6068089753389359e-02</internalNodes>
      <leafValues>
        -8.0469524860382080e-01 1.9529163837432861e-01</leafValues></_>
    <_>
      <internalNodes>
        0 -1 71333 1.4997058315202594e-03</internalNodes>
      <leafValues>
        1.2141313403844833e-01 -9.5768696069717407e-01</leafValues></_>
    <_>
      <internalNodes>
        0 -1 43076 3.0631184927187860e-05</internalNodes>
      <leafValues>
        -3.2071518898010254e-01 4.8623883724212646e-01</leafValues></_>
    <_>
      <internalNodes>
        0 -1 54870 3.7469988455995917e-05</internalNodes>
      <leafValues>
        -3.3130607008934021e-01 4.2229342460632324e-01</leafValues></_>
    <_>
      <internalNodes>
        0 -1 77719 -9.4535592943429947e-03</internalNodes>
      <leafValues>
        3.5844963788986206e-01 -4.9146205186843872e-01</leafValues></_></weakClassifiers></stage17>
</opencv_storage>
