<?xml version="1.0"?>
<opencv_storage>
<stage12>
  <maxWeakCount>7</maxWeakCount>
  <stageThreshold>-1.3151044845581055e+00</stageThreshold>
  <weakClassifiers>
    <_>
      <internalNodes>
        0 -1 57843 3.4840479493141174e-03</internalNodes>
      <leafValues>
        -6.6233766078948975e-01 2.5581395626068115e-01</leafValues></_>
    <_>
      <internalNodes>
        0 -1 54797 -2.6763606816530228e-02</internalNodes>
      <leafValues>
        -8.4695917367935181e-01 1.5934191644191742e-01</leafValues></_>
    <_>
      <internalNodes>
        0 -1 65781 9.3678813427686691e-03</internalNodes>
      <leafValues>
        1.4424914121627808e-01 -1.</leafValues></_>
    <_>
      <internalNodes>
        0 -1 40164 6.6832881420850754e-03</internalNodes>
      <leafValues>
        1.8504978716373444e-01 -7.2699826955795288e-01</leafValues></_>
    <_>
      <internalNodes>
        0 -1 352 6.9582252763211727e-03</internalNodes>
      <leafValues>
        2.2022837400436401e-01 -9.3436872959136963e-01</leafValues></_>
    <_>
      <internalNodes>
        0 -1 35877 3.3594602427911013e-05</internalNodes>
      <leafValues>
        -5.4042768478393555e-01 3.3225652575492859e-01</leafValues></_>
    <_>
      <internalNodes>
        0 -1 926 -9.1142801102250814e-04</internalNodes>
      <leafValues>
        -9.3080079555511475e-01 1.8509276211261749e-01</leafValues></_></weakClassifiers></stage12>
</opencv_storage>
