<?xml version="1.0"?>
<opencv_storage>
<stage18>
  <maxWeakCount>9</maxWeakCount>
  <stageThreshold>-1.1386984586715698e+00</stageThreshold>
  <weakClassifiers>
    <_>
      <internalNodes>
        0 -1 68939 -2.6074261404573917e-04</internalNodes>
      <leafValues>
        -1.9230769947171211e-02 -6.7361110448837280e-01</leafValues></_>
    <_>
      <internalNodes>
        0 -1 30472 1.2844719458371401e-03</internalNodes>
      <leafValues>
        1.5914142131805420e-01 -5.4853045940399170e-01</leafValues></_>
    <_>
      <internalNodes>
        0 -1 36123 4.2674131691455841e-02</internalNodes>
      <leafValues>
        1.4283463358879089e-01 -6.9341850280761719e-01</leafValues></_>
    <_>
      <internalNodes>
        0 -1 17267 2.9253955290187150e-05</internalNodes>
      <leafValues>
        -2.3083300888538361e-01 4.7828885912895203e-01</leafValues></_>
    <_>
      <internalNodes>
        0 -1 7609 -2.8850501403212547e-03</internalNodes>
      <leafValues>
        -1. 9.8893374204635620e-02</leafValues></_>
    <_>
      <internalNodes>
        0 -1 570 6.6588982939720154e-02</internalNodes>
      <leafValues>
        1.0435751825571060e-01 -7.9914033412933350e-01</leafValues></_>
    <_>
      <internalNodes>
        0 -1 28053 -1.2501993296609726e-05</internalNodes>
      <leafValues>
        4.0025416016578674e-01 -2.7041035890579224e-01</leafValues></_>
    <_>
      <internalNodes>
        0 -1 77826 4.1480739600956440e-03</internalNodes>
      <leafValues>
        1.8325228989124298e-01 -6.5270739793777466e-01</leafValues></_>
    <_>
      <internalNodes>
        0 -1 6925 2.2857584990561008e-03</internalNodes>
      <leafValues>
        5.5348616093397141e-02 -9.7575592994689941e-01</leafValues></_></weakClassifiers></stage18>
</opencv_storage>
