<?xml version="1.0"?>
<opencv_storage>
<stage19>
  <maxWeakCount>8</maxWeakCount>
  <stageThreshold>-9.2769783735275269e-01</stageThreshold>
  <weakClassifiers>
    <_>
      <internalNodes>
        0 -1 74281 4.9737937748432159e-02</internalNodes>
      <leafValues>
        -4.4177448749542236e-01 6.6101694107055664e-01</leafValues></_>
    <_>
      <internalNodes>
        0 -1 6818 -1.6547997074667364e-04</internalNodes>
      <leafValues>
        2.2815774381160736e-01 -5.4963499307632446e-01</leafValues></_>
    <_>
      <internalNodes>
        0 -1 22012 -9.4328448176383972e-03</internalNodes>
      <leafValues>
        -8.5753470659255981e-01 2.0094908773899078e-01</leafValues></_>
    <_>
      <internalNodes>
        0 -1 72235 -1.2244870886206627e-03</internalNodes>
      <leafValues>
        -6.9570583105087280e-01 2.0543947815895081e-01</leafValues></_>
    <_>
      <internalNodes>
        0 -1 46492 -3.0772593163419515e-05</internalNodes>
      <leafValues>
        5.2639251947402954e-01 -2.5319978594779968e-01</leafValues></_>
    <_>
      <internalNodes>
        0 -1 661 -2.0291467662900686e-03</internalNodes>
      <leafValues>
        -9.1376805305480957e-01 2.1398366987705231e-01</leafValues></_>
    <_>
      <internalNodes>
        0 -1 745 6.4797364757396281e-05</internalNodes>
      <leafValues>
        -2.3197995126247406e-01 8.0416756868362427e-01</leafValues></_>
    <_>
      <internalNodes>
        0 -1 26174 -1.0885407682508230e-03</internalNodes>
      <leafValues>
        -8.1090402603149414e-01 2.0921015739440918e-01</leafValues></_></weakClassifiers></stage19>
</opencv_storage>
