<?xml version="1.0"?>
<opencv_storage>
<stage5>
  <maxWeakCount>6</maxWeakCount>
  <stageThreshold>-1.5049508810043335e+00</stageThreshold>
  <weakClassifiers>
    <_>
      <internalNodes>
        0 -1 6755 -5.4685289796907455e-05</internalNodes>
      <leafValues>
        9.6385538578033447e-02 -8.6567163467407227e-01</leafValues></_>
    <_>
      <internalNodes>
        0 -1 40534 4.5295674353837967e-03</internalNodes>
      <leafValues>
        1.9408583641052246e-01 -8.9059776067733765e-01</leafValues></_>
    <_>
      <internalNodes>
        0 -1 42654 -6.0610834043473005e-04</internalNodes>
      <leafValues>
        -9.6281254291534424e-01 3.4905114769935608e-01</leafValues></_>
    <_>
      <internalNodes>
        0 -1 12750 2.2001143544912338e-02</internalNodes>
      <leafValues>
        -5.9340113401412964e-01 3.9110824465751648e-01</leafValues></_>
    <_>
      <internalNodes>
        0 -1 50337 -6.3773304224014282e-02</internalNodes>
      <leafValues>
        -8.6716234683990479e-01 2.9388511180877686e-01</leafValues></_>
    <_>
      <internalNodes>
        0 -1 64131 -7.2181399445980787e-04</internalNodes>
      <leafValues>
        -9.2865657806396484e-01 2.0178334414958954e-01</leafValues></_></weakClassifiers></stage5>
</opencv_storage>
