<?xml version="1.0"?>
<opencv_storage>
<stage14>
  <maxWeakCount>8</maxWeakCount>
  <stageThreshold>-1.2765531539916992e+00</stageThreshold>
  <weakClassifiers>
    <_>
      <internalNodes>
        0 -1 29593 2.5072595104575157e-02</internalNodes>
      <leafValues>
        -4.7808766365051270e-01 4.0816327929496765e-01</leafValues></_>
    <_>
      <internalNodes>
        0 -1 71838 2.6255279779434204e-02</internalNodes>
      <leafValues>
        1.4823409914970398e-01 -8.1540954113006592e-01</leafValues></_>
    <_>
      <internalNodes>
        0 -1 2553 7.1738779544830322e-02</internalNodes>
      <leafValues>
        1.1183331161737442e-01 -8.8402408361434937e-01</leafValues></_>
    <_>
      <internalNodes>
        0 -1 47267 3.5171902709407732e-05</internalNodes>
      <leafValues>
        -3.9495113492012024e-01 3.3483430743217468e-01</leafValues></_>
    <_>
      <internalNodes>
        0 -1 77696 -1.5453961677849293e-03</internalNodes>
      <leafValues>
        -8.3089882135391235e-01 1.7392152547836304e-01</leafValues></_>
    <_>
      <internalNodes>
        0 -1 4393 3.5279328585602343e-05</internalNodes>
      <leafValues>
        -3.0585971474647522e-01 4.6874752640724182e-01</leafValues></_>
    <_>
      <internalNodes>
        0 -1 64386 5.9208594029769301e-04</internalNodes>
      <leafValues>
        2.1439950168132782e-01 -6.4783322811126709e-01</leafValues></_>
    <_>
      <internalNodes>
        0 -1 1326 1.0809183120727539e-01</internalNodes>
      <leafValues>
        1.1618962883949280e-01 -9.3921005725860596e-01</leafValues></_></weakClassifiers></stage14>
</opencv_storage>
