<?xml version="1.0"?>
<opencv_storage>
<stage22>
  <maxWeakCount>11</maxWeakCount>
  <stageThreshold>-1.2522541284561157e+00</stageThreshold>
  <weakClassifiers>
    <_>
      <internalNodes>
        0 -1 744 9.7402553365100175e-05</internalNodes>
      <leafValues>
        -4.7704589366912842e-01 3.9393940567970276e-01</leafValues></_>
    <_>
      <internalNodes>
        0 -1 32347 -8.2974671386182308e-05</internalNodes>
      <leafValues>
        5.0815629959106445e-01 -2.5870907306671143e-01</leafValues></_>
    <_>
      <internalNodes>
        0 -1 1438 1.2168588000349700e-04</internalNodes>
      <leafValues>
        -1.7336314916610718e-01 7.1670931577682495e-01</leafValues></_>
    <_>
      <internalNodes>
        0 -1 1083 1.8097575753927231e-02</internalNodes>
      <leafValues>
        -4.3053346872329712e-01 2.7961063385009766e-01</leafValues></_>
    <_>
      <internalNodes>
        0 -1 58304 1.5700208023190498e-02</internalNodes>
      <leafValues>
        -1.8588829040527344e-01 6.5262711048126221e-01</leafValues></_>
    <_>
      <internalNodes>
        0 -1 78194 -1.5467411139979959e-04</internalNodes>
      <leafValues>
        -7.5140929222106934e-01 1.8592649698257446e-01</leafValues></_>
    <_>
      <internalNodes>
        0 -1 35760 -3.8427402614615858e-05</internalNodes>
      <leafValues>
        5.1073318719863892e-01 -2.4450598657131195e-01</leafValues></_>
    <_>
      <internalNodes>
        0 -1 68372 3.7626370612997562e-05</internalNodes>
      <leafValues>
        -3.3651477098464966e-01 3.6964926123619080e-01</leafValues></_>
    <_>
      <internalNodes>
        0 -1 36819 -5.0158589147031307e-04</internalNodes>
      <leafValues>
        -7.3751753568649292e-01 1.7581476271152496e-01</leafValues></_>
    <_>
      <internalNodes>
        0 -1 3324 5.5051517847459763e-05</internalNodes>
      <leafValues>
        -2.5947448611259460e-01 4.7046145796775818e-01</leafValues></_>
    <_>
      <internalNodes>
        0 -1 78309 -1.9866520538926125e-02</internalNodes>
      <leafValues>
        -9.2413854598999023e-01 1.4469619095325470e-01</leafValues></_></weakClassifiers></stage22>
</opencv_storage>
