<?xml version="1.0"?>
<opencv_storage>
<stage14>
  <maxWeakCount>7</maxWeakCount>
  <stageThreshold>-1.4983704090118408e+00</stageThreshold>
  <weakClassifiers>
    <_>
      <internalNodes>
        0 -1 66640 9.0450303105171770e-05</internalNodes>
      <leafValues>
        -6.9278997182846069e-01 7.4733093380928040e-02</leafValues></_>
    <_>
      <internalNodes>
        0 -1 78411 3.3976482227444649e-03</internalNodes>
      <leafValues>
        -4.6129947900772095e-01 3.8780844211578369e-01</leafValues></_>
    <_>
      <internalNodes>
        0 -1 63046 1.3180451933294535e-03</internalNodes>
      <leafValues>
        -4.7556325793266296e-01 4.0577596426010132e-01</leafValues></_>
    <_>
      <internalNodes>
        0 -1 75304 1.9288452676846646e-05</internalNodes>
      <leafValues>
        1.7435686290264130e-01 -9.2056256532669067e-01</leafValues></_>
    <_>
      <internalNodes>
        0 -1 45157 1.6864196368260309e-05</internalNodes>
      <leafValues>
        -3.0885165929794312e-01 6.0471260547637939e-01</leafValues></_>
    <_>
      <internalNodes>
        0 -1 518 1.4741785824298859e-02</internalNodes>
      <leafValues>
        2.3244678974151611e-01 -7.7403700351715088e-01</leafValues></_>
    <_>
      <internalNodes>
        0 -1 34233 -1.7122691497206688e-02</internalNodes>
      <leafValues>
        -9.8577564954757690e-01 1.5847490727901459e-01</leafValues></_></weakClassifiers></stage14>
</opencv_storage>
