<?xml version="1.0"?>
<opencv_storage>
<stage10>
  <maxWeakCount>5</maxWeakCount>
  <stageThreshold>-1.0486452579498291e+00</stageThreshold>
  <weakClassifiers>
    <_>
      <internalNodes>
        0 -1 9294 2.0384434610605240e-02</internalNodes>
      <leafValues>
        -7.9061371088027954e-01 5.8823529630899429e-02</leafValues></_>
    <_>
      <internalNodes>
        0 -1 6925 1.0934222955256701e-03</internalNodes>
      <leafValues>
        1.2835763394832611e-01 -1.</leafValues></_>
    <_>
      <internalNodes>
        0 -1 44708 5.9633450291585177e-05</internalNodes>
      <leafValues>
        -7.1477991342544556e-01 2.3999358713626862e-01</leafValues></_>
    <_>
      <internalNodes>
        0 -1 78391 1.5139207243919373e-02</internalNodes>
      <leafValues>
        1.5442816913127899e-01 -9.3663263320922852e-01</leafValues></_>
    <_>
      <internalNodes>
        0 -1 77866 -2.2535980679094791e-03</internalNodes>
      <leafValues>
        -9.6347022056579590e-01 1.7396253347396851e-01</leafValues></_></weakClassifiers></stage10>
</opencv_storage>
