<?xml version="1.0"?>
<opencv_storage>
<stage9>
  <maxWeakCount>8</maxWeakCount>
  <stageThreshold>-1.3432415723800659e+00</stageThreshold>
  <weakClassifiers>
    <_>
      <internalNodes>
        0 -1 73359 -1.9925698637962341e-02</internalNodes>
      <leafValues>
        5.4687500000000000e-01 -5.7203388214111328e-01</leafValues></_>
    <_>
      <internalNodes>
        0 -1 43962 -2.4168591480702162e-03</internalNodes>
      <leafValues>
        3.2253792881965637e-01 -6.3642281293869019e-01</leafValues></_>
    <_>
      <internalNodes>
        0 -1 36287 3.7955744192004204e-03</internalNodes>
      <leafValues>
        2.2289073467254639e-01 -8.5143911838531494e-01</leafValues></_>
    <_>
      <internalNodes>
        0 -1 296 -1.9854855054290965e-05</internalNodes>
      <leafValues>
        3.4219977259635925e-01 -6.1848515272140503e-01</leafValues></_>
    <_>
      <internalNodes>
        0 -1 35405 -1.5971970278769732e-03</internalNodes>
      <leafValues>
        -9.4340896606445312e-01 2.3501181602478027e-01</leafValues></_>
    <_>
      <internalNodes>
        0 -1 78351 -5.2539259195327759e-03</internalNodes>
      <leafValues>
        4.4226309657096863e-01 -5.1032638549804688e-01</leafValues></_>
    <_>
      <internalNodes>
        0 -1 36863 -2.8512389399111271e-03</internalNodes>
      <leafValues>
        -9.0398085117340088e-01 2.1405562758445740e-01</leafValues></_>
    <_>
      <internalNodes>
        0 -1 878 -8.4601415437646210e-05</internalNodes>
      <leafValues>
        3.2206848263740540e-01 -6.1177456378936768e-01</leafValues></_></weakClassifiers></stage9>
</opencv_storage>
