<?xml version="1.0"?>
<opencv_storage>
<stage18>
  <maxWeakCount>8</maxWeakCount>
  <stageThreshold>-1.0542410612106323e+00</stageThreshold>
  <weakClassifiers>
    <_>
      <internalNodes>
        0 -1 49307 -3.7296954542398453e-04</internalNodes>
      <leafValues>
        -7.3170728981494904e-02 -7.4891775846481323e-01</leafValues></_>
    <_>
      <internalNodes>
        0 -1 78310 -1.7200229689478874e-02</internalNodes>
      <leafValues>
        -9.7371202707290649e-01 1.0262062400579453e-01</leafValues></_>
    <_>
      <internalNodes>
        0 -1 26114 1.1653036810457706e-02</internalNodes>
      <leafValues>
        2.2705259919166565e-01 -5.4698443412780762e-01</leafValues></_>
    <_>
      <internalNodes>
        0 -1 76602 1.3669310646946542e-05</internalNodes>
      <leafValues>
        2.4655063450336456e-01 -5.5806410312652588e-01</leafValues></_>
    <_>
      <internalNodes>
        0 -1 508 1.4226322062313557e-02</internalNodes>
      <leafValues>
        1.3705812394618988e-01 -9.1291791200637817e-01</leafValues></_>
    <_>
      <internalNodes>
        0 -1 45840 -2.5819540023803711e-02</internalNodes>
      <leafValues>
        -6.9461560249328613e-01 1.5192332863807678e-01</leafValues></_>
    <_>
      <internalNodes>
        0 -1 31 -4.0940642356872559e-03</internalNodes>
      <leafValues>
        3.5516354441642761e-01 -4.0842294692993164e-01</leafValues></_>
    <_>
      <internalNodes>
        0 -1 56341 -2.7898573316633701e-03</internalNodes>
      <leafValues>
        -6.9240683317184448e-01 2.1330101788043976e-01</leafValues></_></weakClassifiers></stage18>
</opencv_storage>
