<?xml version="1.0"?>
<opencv_storage>
<stage9>
  <maxWeakCount>7</maxWeakCount>
  <stageThreshold>-1.2355705499649048e+00</stageThreshold>
  <weakClassifiers>
    <_>
      <internalNodes>
        0 -1 1636 -1.3813235273119062e-04</internalNodes>
      <leafValues>
        9.8591551184654236e-02 -7.2151899337768555e-01</leafValues></_>
    <_>
      <internalNodes>
        0 -1 12253 1.9028811948373914e-03</internalNodes>
      <leafValues>
        -4.1745305061340332e-01 4.7504240274429321e-01</leafValues></_>
    <_>
      <internalNodes>
        0 -1 36824 4.2929463088512421e-03</internalNodes>
      <leafValues>
        1.7997428774833679e-01 -8.8405674695968628e-01</leafValues></_>
    <_>
      <internalNodes>
        0 -1 39894 1.0611600242555141e-02</internalNodes>
      <leafValues>
        2.0578442513942719e-01 -8.8506585359573364e-01</leafValues></_>
    <_>
      <internalNodes>
        0 -1 50264 -4.4473979622125626e-02</internalNodes>
      <leafValues>
        -8.8347244262695312e-01 1.5528638660907745e-01</leafValues></_>
    <_>
      <internalNodes>
        0 -1 73417 1.9173370674252510e-05</internalNodes>
      <leafValues>
        -5.8911043405532837e-01 2.4736995995044708e-01</leafValues></_>
    <_>
      <internalNodes>
        0 -1 11618 -9.0510427951812744e-02</internalNodes>
      <leafValues>
        -1. 1.5374527871608734e-01</leafValues></_></weakClassifiers></stage9>
</opencv_storage>
