<?xml version="1.0"?>
<opencv_storage>
<stage16>
  <maxWeakCount>11</maxWeakCount>
  <stageThreshold>-1.6301853656768799e+00</stageThreshold>
  <weakClassifiers>
    <_>
      <internalNodes>
        0 -1 43459 3.6401122808456421e-02</internalNodes>
      <leafValues>
        -7.2519081830978394e-01 -2.9585799202322960e-02</leafValues></_>
    <_>
      <internalNodes>
        0 -1 61051 -2.1122130565345287e-03</internalNodes>
      <leafValues>
        -9.5011675357818604e-01 9.8807267844676971e-02</leafValues></_>
    <_>
      <internalNodes>
        0 -1 593 4.4030673801898956e-02</internalNodes>
      <leafValues>
        1.5216097235679626e-01 -8.3511060476303101e-01</leafValues></_>
    <_>
      <internalNodes>
        0 -1 7641 -1.0818742215633392e-02</internalNodes>
      <leafValues>
        -8.0950427055358887e-01 1.5284793078899384e-01</leafValues></_>
    <_>
      <internalNodes>
        0 -1 21735 8.6734013166278601e-04</internalNodes>
      <leafValues>
        1.3600541651248932e-01 -8.4506899118423462e-01</leafValues></_>
    <_>
      <internalNodes>
        0 -1 39105 3.9817892014980316e-02</internalNodes>
      <leafValues>
        -2.4857372045516968e-01 5.7357442378997803e-01</leafValues></_>
    <_>
      <internalNodes>
        0 -1 43355 3.2093150366563350e-05</internalNodes>
      <leafValues>
        -3.2807108759880066e-01 4.2125311493873596e-01</leafValues></_>
    <_>
      <internalNodes>
        0 -1 37851 -2.4152984842658043e-03</internalNodes>
      <leafValues>
        -9.6462506055831909e-01 1.5387432277202606e-01</leafValues></_>
    <_>
      <internalNodes>
        0 -1 6940 6.8180088419467211e-05</internalNodes>
      <leafValues>
        -4.2364585399627686e-01 3.1786170601844788e-01</leafValues></_>
    <_>
      <internalNodes>
        0 -1 6739 6.5661524422466755e-04</internalNodes>
      <leafValues>
        2.1065802872180939e-01 -6.1353468894958496e-01</leafValues></_>
    <_>
      <internalNodes>
        0 -1 460 3.1805720180273056e-02</internalNodes>
      <leafValues>
        1.7201669514179230e-01 -7.8150188922882080e-01</leafValues></_></weakClassifiers></stage16>
</opencv_storage>
