<?xml version="1.0"?>
<opencv_storage>
<stage4>
  <maxWeakCount>5</maxWeakCount>
  <stageThreshold>-1.7514237165451050e+00</stageThreshold>
  <weakClassifiers>
    <_>
      <internalNodes>
        0 -1 53136 3.5688228905200958e-02</internalNodes>
      <leafValues>
        -7.6323986053466797e-01 1.6129031777381897e-01</leafValues></_>
    <_>
      <internalNodes>
        0 -1 55768 2.4593381676822901e-03</internalNodes>
      <leafValues>
        1.9635316729545593e-01 -9.4669204950332642e-01</leafValues></_>
    <_>
      <internalNodes>
        0 -1 55766 -2.5598527863621712e-03</internalNodes>
      <leafValues>
        -9.6897190809249878e-01 2.4056339263916016e-01</leafValues></_>
    <_>
      <internalNodes>
        0 -1 1576 -2.0446646885829978e-05</internalNodes>
      <leafValues>
        2.9982072114944458e-01 -7.4999171495437622e-01</leafValues></_>
    <_>
      <internalNodes>
        0 -1 73293 1.1363360681571066e-04</internalNodes>
      <leafValues>
        -6.7510873079299927e-01 3.8755714893341064e-01</leafValues></_></weakClassifiers></stage4>
</opencv_storage>
