<?xml version="1.0"?>
<opencv_storage>
<stage11>
  <maxWeakCount>5</maxWeakCount>
  <stageThreshold>-1.1226092576980591e+00</stageThreshold>
  <weakClassifiers>
    <_>
      <internalNodes>
        0 -1 55391 5.8089783415198326e-03</internalNodes>
      <leafValues>
        -6.3990265130996704e-01 3.3333334326744080e-01</leafValues></_>
    <_>
      <internalNodes>
        0 -1 73524 1.2315146159380674e-03</internalNodes>
      <leafValues>
        2.0772686600685120e-01 -9.8759734630584717e-01</leafValues></_>
    <_>
      <internalNodes>
        0 -1 48676 1.6771838068962097e-02</internalNodes>
      <leafValues>
        -4.3429490923881531e-01 4.5189893245697021e-01</leafValues></_>
    <_>
      <internalNodes>
        0 -1 40968 -1.2854514643549919e-03</internalNodes>
      <leafValues>
        -5.8688193559646606e-01 3.3654165267944336e-01</leafValues></_>
    <_>
      <internalNodes>
        0 -1 17943 1.8516991287469864e-02</internalNodes>
      <leafValues>
        -3.7059199810028076e-01 6.3482743501663208e-01</leafValues></_></weakClassifiers></stage11>
</opencv_storage>
