<?xml version="1.0"?>
<opencv_storage>
<stage4>
  <maxWeakCount>7</maxWeakCount>
  <stageThreshold>-1.1345187425613403e+00</stageThreshold>
  <weakClassifiers>
    <_>
      <internalNodes>
        0 -1 73680 3.0218586325645447e-03</internalNodes>
      <leafValues>
        8.6206898093223572e-02 -9.1269838809967041e-01</leafValues></_>
    <_>
      <internalNodes>
        0 -1 52445 -1.9540551584213972e-03</internalNodes>
      <leafValues>
        -8.2167452573776245e-01 2.1551811695098877e-01</leafValues></_>
    <_>
      <internalNodes>
        0 -1 5110 -1.0604312643408775e-02</internalNodes>
      <leafValues>
        3.6468976736068726e-01 -6.3365757465362549e-01</leafValues></_>
    <_>
      <internalNodes>
        0 -1 67918 2.2001557052135468e-02</internalNodes>
      <leafValues>
        -3.4286135435104370e-01 6.5507268905639648e-01</leafValues></_>
    <_>
      <internalNodes>
        0 -1 57250 1.0438233613967896e-02</internalNodes>
      <leafValues>
        -3.7281146645545959e-01 5.6518292427062988e-01</leafValues></_>
    <_>
      <internalNodes>
        0 -1 42700 2.3417570628225803e-03</internalNodes>
      <leafValues>
        2.3705184459686279e-01 -9.8233610391616821e-01</leafValues></_>
    <_>
      <internalNodes>
        0 -1 5799 -2.8615972027182579e-02</internalNodes>
      <leafValues>
        8.1948059797286987e-01 -3.2299402356147766e-01</leafValues></_></weakClassifiers></stage4>
</opencv_storage>
