<?xml version="1.0"?>
<opencv_storage>
<stage7>
  <maxWeakCount>5</maxWeakCount>
  <stageThreshold>-1.0630784034729004e+00</stageThreshold>
  <weakClassifiers>
    <_>
      <internalNodes>
        0 -1 1102 -1.8745805323123932e-01</internalNodes>
      <leafValues>
        1.6551724076271057e-01 -8.0000001192092896e-01</leafValues></_>
    <_>
      <internalNodes>
        0 -1 9556 -1.0302718728780746e-03</internalNodes>
      <leafValues>
        -8.2483869791030884e-01 2.7356231212615967e-01</leafValues></_>
    <_>
      <internalNodes>
        0 -1 1535 -5.7114334776997566e-04</internalNodes>
      <leafValues>
        -9.4764256477355957e-01 2.0326378941535950e-01</leafValues></_>
    <_>
      <internalNodes>
        0 -1 75061 4.5145096373744309e-04</internalNodes>
      <leafValues>
        2.2415356338024139e-01 -8.5291659832000732e-01</leafValues></_>
    <_>
      <internalNodes>
        0 -1 6425 4.9788501200964674e-05</internalNodes>
      <leafValues>
        -6.6124743223190308e-01 2.9840123653411865e-01</leafValues></_></weakClassifiers></stage7>
</opencv_storage>
