<?xml version="1.0"?>
<opencv_storage>
<stage19>
  <maxWeakCount>11</maxWeakCount>
  <stageThreshold>-1.6378622055053711e+00</stageThreshold>
  <weakClassifiers>
    <_>
      <internalNodes>
        0 -1 71781 -9.3813966959714890e-03</internalNodes>
      <leafValues>
        3.4693878889083862e-01 -5.5408388376235962e-01</leafValues></_>
    <_>
      <internalNodes>
        0 -1 43868 -3.1212721951305866e-03</internalNodes>
      <leafValues>
        3.1493824720382690e-01 -5.1934289932250977e-01</leafValues></_>
    <_>
      <internalNodes>
        0 -1 54543 2.0102312191738747e-05</internalNodes>
      <leafValues>
        2.6555120944976807e-01 -6.1816149950027466e-01</leafValues></_>
    <_>
      <internalNodes>
        0 -1 53248 1.2583881616592407e-03</internalNodes>
      <leafValues>
        2.5604161620140076e-01 -6.8469393253326416e-01</leafValues></_>
    <_>
      <internalNodes>
        0 -1 11741 -5.1105111197102815e-05</internalNodes>
      <leafValues>
        5.6919467449188232e-01 -2.8415641188621521e-01</leafValues></_>
    <_>
      <internalNodes>
        0 -1 12961 -5.7800643844529986e-05</internalNodes>
      <leafValues>
        7.2204756736755371e-01 -2.5968268513679504e-01</leafValues></_>
    <_>
      <internalNodes>
        0 -1 40211 4.0598027408123016e-03</internalNodes>
      <leafValues>
        -5.6163507699966431e-01 3.3243229985237122e-01</leafValues></_>
    <_>
      <internalNodes>
        0 -1 62478 -1.6446105291834101e-05</internalNodes>
      <leafValues>
        6.3710653781890869e-01 -3.3087736368179321e-01</leafValues></_>
    <_>
      <internalNodes>
        0 -1 14760 -4.5273345895111561e-03</internalNodes>
      <leafValues>
        -9.3260318040847778e-01 2.3884245753288269e-01</leafValues></_>
    <_>
      <internalNodes>
        0 -1 5675 -1.6781561076641083e-02</internalNodes>
      <leafValues>
        5.2479773759841919e-01 -3.1897953152656555e-01</leafValues></_>
    <_>
      <internalNodes>
        0 -1 65984 -1.5053361130412668e-04</internalNodes>
      <leafValues>
        -4.2289078235626221e-01 3.3808961510658264e-01</leafValues></_></weakClassifiers></stage19>
</opencv_storage>
