<?xml version="1.0"?>
<opencv_storage>
<stage20>
  <maxWeakCount>12</maxWeakCount>
  <stageThreshold>-1.2953242063522339e+00</stageThreshold>
  <weakClassifiers>
    <_>
      <internalNodes>
        0 -1 12857 4.9897417426109314e-02</internalNodes>
      <leafValues>
        -4.3606558442115784e-01 3.4736841917037964e-01</leafValues></_>
    <_>
      <internalNodes>
        0 -1 17227 -9.4781160354614258e-02</internalNodes>
      <leafValues>
        4.6213799715042114e-01 -3.0961906909942627e-01</leafValues></_>
    <_>
      <internalNodes>
        0 -1 21615 4.2275537271052599e-04</internalNodes>
      <leafValues>
        -4.5812052488327026e-01 3.2118374109268188e-01</leafValues></_>
    <_>
      <internalNodes>
        0 -1 7615 2.8830260271206498e-04</internalNodes>
      <leafValues>
        -3.9752075076103210e-01 3.6275801062583923e-01</leafValues></_>
    <_>
      <internalNodes>
        0 -1 14763 1.2089308351278305e-02</internalNodes>
      <leafValues>
        1.6420572996139526e-01 -8.6623394489288330e-01</leafValues></_>
    <_>
      <internalNodes>
        0 -1 867 -3.0525730835506693e-05</internalNodes>
      <leafValues>
        4.1835975646972656e-01 -3.1063783168792725e-01</leafValues></_>
    <_>
      <internalNodes>
        0 -1 1286 4.3430854566395283e-04</internalNodes>
      <leafValues>
        1.3999956846237183e-01 -9.0918916463851929e-01</leafValues></_>
    <_>
      <internalNodes>
        0 -1 46502 9.2206913977861404e-03</internalNodes>
      <leafValues>
        1.2150231003761292e-01 -8.0952090024948120e-01</leafValues></_>
    <_>
      <internalNodes>
        0 -1 47479 1.3036163523793221e-02</internalNodes>
      <leafValues>
        -2.2682334482669830e-01 5.0858008861541748e-01</leafValues></_>
    <_>
      <internalNodes>
        0 -1 2076 2.0527783036231995e-01</internalNodes>
      <leafValues>
        1.2280526012182236e-01 -9.0931797027587891e-01</leafValues></_>
    <_>
      <internalNodes>
        0 -1 736 -1.5108531713485718e-01</internalNodes>
      <leafValues>
        -6.1344337463378906e-01 2.1073305606842041e-01</leafValues></_>
    <_>
      <internalNodes>
        0 -1 22189 -4.6787731349468231e-02</internalNodes>
      <leafValues>
        -9.5068508386611938e-01 8.4217019379138947e-02</leafValues></_></weakClassifiers></stage20>
</opencv_storage>
