<?xml version="1.0"?>
<opencv_storage>
<stage10>
  <maxWeakCount>5</maxWeakCount>
  <stageThreshold>-7.6605439186096191e-01</stageThreshold>
  <weakClassifiers>
    <_>
      <internalNodes>
        0 -1 23942 -8.4562465548515320e-02</internalNodes>
      <leafValues>
        6.0194176435470581e-01 -5.4545456171035767e-01</leafValues></_>
    <_>
      <internalNodes>
        0 -1 77709 2.6785396039485931e-04</internalNodes>
      <leafValues>
        2.6890394091606140e-01 -8.8733011484146118e-01</leafValues></_>
    <_>
      <internalNodes>
        0 -1 50093 6.8861797451972961e-02</internalNodes>
      <leafValues>
        -3.1980830430984497e-01 7.2112244367599487e-01</leafValues></_>
    <_>
      <internalNodes>
        0 -1 40970 4.2138658463954926e-02</internalNodes>
      <leafValues>
        -3.2480147480964661e-01 7.6157492399215698e-01</leafValues></_>
    <_>
      <internalNodes>
        0 -1 24 -6.3945143483579159e-04</internalNodes>
      <leafValues>
        -8.2370710372924805e-01 2.7040925621986389e-01</leafValues></_></weakClassifiers></stage10>
</opencv_storage>
