<?xml version="1.0"?>
<opencv_storage>
<stage13>
  <maxWeakCount>11</maxWeakCount>
  <stageThreshold>-1.1548500061035156e+00</stageThreshold>
  <weakClassifiers>
    <_>
      <internalNodes>
        0 -1 16928 -4.6516936272382736e-03</internalNodes>
      <leafValues>
        1.5306122601032257e-01 -6.3725489377975464e-01</leafValues></_>
    <_>
      <internalNodes>
        0 -1 55492 3.4494712017476559e-03</internalNodes>
      <leafValues>
        -3.3868110179901123e-01 4.3812653422355652e-01</leafValues></_>
    <_>
      <internalNodes>
        0 -1 57463 -6.8556005135178566e-04</internalNodes>
      <leafValues>
        -6.9406789541244507e-01 1.8931016325950623e-01</leafValues></_>
    <_>
      <internalNodes>
        0 -1 53007 5.1237009465694427e-02</internalNodes>
      <leafValues>
        -1.9645160436630249e-01 7.4763643741607666e-01</leafValues></_>
    <_>
      <internalNodes>
        0 -1 39982 8.2700908184051514e-02</internalNodes>
      <leafValues>
        -2.7092859148979187e-01 6.3858139514923096e-01</leafValues></_>
    <_>
      <internalNodes>
        0 -1 48741 3.9402104914188385e-02</internalNodes>
      <leafValues>
        -3.1516617536544800e-01 4.3038323521614075e-01</leafValues></_>
    <_>
      <internalNodes>
        0 -1 19052 -1.1251433938741684e-01</internalNodes>
      <leafValues>
        7.0941710472106934e-01 -2.0662368834018707e-01</leafValues></_>
    <_>
      <internalNodes>
        0 -1 26361 1.3548688963055611e-02</internalNodes>
      <leafValues>
        -2.3767706751823425e-01 5.5240637063980103e-01</leafValues></_>
    <_>
      <internalNodes>
        0 -1 75147 1.4111098607827444e-05</internalNodes>
      <leafValues>
        -4.4110363721847534e-01 3.0516463518142700e-01</leafValues></_>
    <_>
      <internalNodes>
        0 -1 15099 9.8323063866700977e-05</internalNodes>
      <leafValues>
        -4.3852174282073975e-01 3.0645361542701721e-01</leafValues></_>
    <_>
      <internalNodes>
        0 -1 53375 9.9371396936476231e-04</internalNodes>
      <leafValues>
        2.7177137136459351e-01 -5.3037703037261963e-01</leafValues></_></weakClassifiers></stage13>
</opencv_storage>
