<?xml version="1.0"?>
<opencv_storage>
<stage18>
  <maxWeakCount>9</maxWeakCount>
  <stageThreshold>-1.2617089748382568e+00</stageThreshold>
  <weakClassifiers>
    <_>
      <internalNodes>
        0 -1 24465 4.0430173277854919e-02</internalNodes>
      <leafValues>
        -6.5760868787765503e-01 9.7222223877906799e-02</leafValues></_>
    <_>
      <internalNodes>
        0 -1 9092 7.6670013368129730e-04</internalNodes>
      <leafValues>
        -4.2100504040718079e-01 3.2353714108467102e-01</leafValues></_>
    <_>
      <internalNodes>
        0 -1 14666 -2.0884947851300240e-02</internalNodes>
      <leafValues>
        -8.8843756914138794e-01 1.4459377527236938e-01</leafValues></_>
    <_>
      <internalNodes>
        0 -1 21747 1.3990252045914531e-03</internalNodes>
      <leafValues>
        -4.3982326984405518e-01 3.2189258933067322e-01</leafValues></_>
    <_>
      <internalNodes>
        0 -1 4845 -1.6664985567331314e-02</internalNodes>
      <leafValues>
        3.1474870443344116e-01 -4.3687137961387634e-01</leafValues></_>
    <_>
      <internalNodes>
        0 -1 28180 8.2248952239751816e-03</internalNodes>
      <leafValues>
        -2.7354699373245239e-01 4.5229482650756836e-01</leafValues></_>
    <_>
      <internalNodes>
        0 -1 71287 2.5604352355003357e-02</internalNodes>
      <leafValues>
        -2.2564712166786194e-01 6.0519158840179443e-01</leafValues></_>
    <_>
      <internalNodes>
        0 -1 7603 -5.0681002903729677e-04</internalNodes>
      <leafValues>
        -8.9696997404098511e-01 1.8554526567459106e-01</leafValues></_>
    <_>
      <internalNodes>
        0 -1 49739 -2.8615485876798630e-02</internalNodes>
      <leafValues>
        -8.0490136146545410e-01 1.0093866288661957e-01</leafValues></_></weakClassifiers></stage18>
</opencv_storage>
