<?xml version="1.0"?>
<opencv_storage>
<stage3>
  <maxWeakCount>6</maxWeakCount>
  <stageThreshold>-9.7241079807281494e-01</stageThreshold>
  <weakClassifiers>
    <_>
      <internalNodes>
        0 -1 3524 1.1780306696891785e-02</internalNodes>
      <leafValues>
        -6.5252524614334106e-01 4.0327867865562439e-01</leafValues></_>
    <_>
      <internalNodes>
        0 -1 58019 8.6940731853246689e-03</internalNodes>
      <leafValues>
        -7.4323827028274536e-01 2.8579050302505493e-01</leafValues></_>
    <_>
      <internalNodes>
        0 -1 2840 -4.2925385059788823e-04</internalNodes>
      <leafValues>
        3.5043510794639587e-01 -6.5059822797775269e-01</leafValues></_>
    <_>
      <internalNodes>
        0 -1 72143 4.0477179572917521e-04</internalNodes>
      <leafValues>
        -5.5680495500564575e-01 3.6408552527427673e-01</leafValues></_>
    <_>
      <internalNodes>
        0 -1 7384 5.4529486224055290e-03</internalNodes>
      <leafValues>
        -4.4407740235328674e-01 4.5232912898063660e-01</leafValues></_>
    <_>
      <internalNodes>
        0 -1 46511 -1.1221770197153091e-02</internalNodes>
      <leafValues>
        -9.9420851469039917e-01 1.7739343643188477e-01</leafValues></_></weakClassifiers></stage3>
</opencv_storage>
