<?xml version="1.0"?>
<opencv_storage>
<stage15>
  <maxWeakCount>9</maxWeakCount>
  <stageThreshold>-9.8173314332962036e-01</stageThreshold>
  <weakClassifiers>
    <_>
      <internalNodes>
        0 -1 12708 8.0877393484115601e-03</internalNodes>
      <leafValues>
        -6.0801780223846436e-01 2.0797720551490784e-01</leafValues></_>
    <_>
      <internalNodes>
        0 -1 27256 8.8402599096298218e-02</internalNodes>
      <leafValues>
        -5.2829551696777344e-01 2.1845465898513794e-01</leafValues></_>
    <_>
      <internalNodes>
        0 -1 388 -2.2900093346834183e-02</internalNodes>
      <leafValues>
        1.7656612396240234e-01 -7.2582238912582397e-01</leafValues></_>
    <_>
      <internalNodes>
        0 -1 396 -1.4161714352667332e-03</internalNodes>
      <leafValues>
        -7.6624566316604614e-01 1.9116792082786560e-01</leafValues></_>
    <_>
      <internalNodes>
        0 -1 16814 6.3714724965393543e-03</internalNodes>
      <leafValues>
        -3.2271304726600647e-01 4.3720623850822449e-01</leafValues></_>
    <_>
      <internalNodes>
        0 -1 69141 5.1228396594524384e-02</internalNodes>
      <leafValues>
        -1.9979359209537506e-01 5.8203142881393433e-01</leafValues></_>
    <_>
      <internalNodes>
        0 -1 1809 -4.8608630895614624e-03</internalNodes>
      <leafValues>
        3.3836731314659119e-01 -4.2396840453147888e-01</leafValues></_>
    <_>
      <internalNodes>
        0 -1 77692 -1.2235492467880249e-02</internalNodes>
      <leafValues>
        -8.6631888151168823e-01 1.6176870465278625e-01</leafValues></_>
    <_>
      <internalNodes>
        0 -1 37463 -3.6065448075532913e-03</internalNodes>
      <leafValues>
        -8.6967146396636963e-01 9.0554155409336090e-02</leafValues></_></weakClassifiers></stage15>
</opencv_storage>
