<?xml version="1.0"?>
<opencv_storage>
<stage21>
  <maxWeakCount>11</maxWeakCount>
  <stageThreshold>-9.9423116445541382e-01</stageThreshold>
  <weakClassifiers>
    <_>
      <internalNodes>
        0 -1 20367 2.0886965095996857e-02</internalNodes>
      <leafValues>
        -4.7899159789085388e-01 4.1463413834571838e-01</leafValues></_>
    <_>
      <internalNodes>
        0 -1 7299 3.8245269097387791e-03</internalNodes>
      <leafValues>
        -9.6670615673065186e-01 9.4244450330734253e-02</leafValues></_>
    <_>
      <internalNodes>
        0 -1 76593 4.3241023377049714e-05</internalNodes>
      <leafValues>
        2.1808300912380219e-01 -5.6792914867401123e-01</leafValues></_>
    <_>
      <internalNodes>
        0 -1 758 1.3240545740700327e-05</internalNodes>
      <leafValues>
        -4.5468541979789734e-01 2.5751966238021851e-01</leafValues></_>
    <_>
      <internalNodes>
        0 -1 13182 -4.4435277581214905e-02</internalNodes>
      <leafValues>
        7.7374452352523804e-01 -1.8663123250007629e-01</leafValues></_>
    <_>
      <internalNodes>
        0 -1 73801 6.4763173460960388e-02</internalNodes>
      <leafValues>
        -1.9695115089416504e-01 6.5356284379959106e-01</leafValues></_>
    <_>
      <internalNodes>
        0 -1 76593 -5.9448451793286949e-05</internalNodes>
      <leafValues>
        -9.0211910009384155e-01 1.4071722328662872e-01</leafValues></_>
    <_>
      <internalNodes>
        0 -1 58479 4.4130807509645820e-05</internalNodes>
      <leafValues>
        3.1247892975807190e-01 -3.6068707704544067e-01</leafValues></_>
    <_>
      <internalNodes>
        0 -1 45168 1.5709064900875092e-03</internalNodes>
      <leafValues>
        1.7552275955677032e-01 -7.1907180547714233e-01</leafValues></_>
    <_>
      <internalNodes>
        0 -1 1939 -1.1887475848197937e-01</internalNodes>
      <leafValues>
        6.6784924268722534e-01 -1.8454492092132568e-01</leafValues></_>
    <_>
      <internalNodes>
        0 -1 25108 -2.4275397881865501e-03</internalNodes>
      <leafValues>
        3.1349989771842957e-01 -4.1335538029670715e-01</leafValues></_></weakClassifiers></stage21>
</opencv_storage>
