<?xml version="1.0"?>
<opencv_storage>
<stage5>
  <maxWeakCount>5</maxWeakCount>
  <stageThreshold>-1.0431529283523560e+00</stageThreshold>
  <weakClassifiers>
    <_>
      <internalNodes>
        0 -1 37887 1.2823819815821480e-05</internalNodes>
      <leafValues>
        -7.5144511461257935e-01 2.3622047901153564e-01</leafValues></_>
    <_>
      <internalNodes>
        0 -1 65944 1.0674097575247288e-04</internalNodes>
      <leafValues>
        -7.2701388597488403e-01 3.7089306116104126e-01</leafValues></_>
    <_>
      <internalNodes>
        0 -1 12273 1.2778869830071926e-02</internalNodes>
      <leafValues>
        -3.8263893127441406e-01 5.1620352268218994e-01</leafValues></_>
    <_>
      <internalNodes>
        0 -1 47369 -4.2000161483883858e-03</internalNodes>
      <leafValues>
        -8.6408054828643799e-01 2.3611830174922943e-01</leafValues></_>
    <_>
      <internalNodes>
        0 -1 68203 -3.9217779412865639e-03</internalNodes>
      <leafValues>
        5.8182668685913086e-01 -3.9198747277259827e-01</leafValues></_></weakClassifiers></stage5>
</opencv_storage>
