<?xml version="1.0"?>
<opencv_storage>
<stage20>
  <maxWeakCount>11</maxWeakCount>
  <stageThreshold>-1.1801829338073730e+00</stageThreshold>
  <weakClassifiers>
    <_>
      <internalNodes>
        0 -1 39928 1.2501993296609726e-05</internalNodes>
      <leafValues>
        -5.7647061347961426e-01 -1.5384615398943424e-02</leafValues></_>
    <_>
      <internalNodes>
        0 -1 58854 1.4947703108191490e-02</internalNodes>
      <leafValues>
        -2.4331170320510864e-01 4.0036559104919434e-01</leafValues></_>
    <_>
      <internalNodes>
        0 -1 60712 -1.9019035622477531e-02</internalNodes>
      <leafValues>
        4.2722663283348083e-01 -2.4149748682975769e-01</leafValues></_>
    <_>
      <internalNodes>
        0 -1 45 1.7050623428076506e-03</internalNodes>
      <leafValues>
        1.3485446572303772e-01 -8.5229986906051636e-01</leafValues></_>
    <_>
      <internalNodes>
        0 -1 69822 -1.1806334368884563e-02</internalNodes>
      <leafValues>
        -7.3510766029357910e-01 1.1967842280864716e-01</leafValues></_>
    <_>
      <internalNodes>
        0 -1 37122 1.2224016245454550e-03</internalNodes>
      <leafValues>
        9.6980854868888855e-02 -1.</leafValues></_>
    <_>
      <internalNodes>
        0 -1 8044 3.4835731639759615e-05</internalNodes>
      <leafValues>
        1.7140783369541168e-01 -5.0581806898117065e-01</leafValues></_>
    <_>
      <internalNodes>
        0 -1 73759 5.0649097829591483e-05</internalNodes>
      <leafValues>
        -4.5443400740623474e-01 2.2775335609912872e-01</leafValues></_>
    <_>
      <internalNodes>
        0 -1 77696 1.4837711350992322e-03</internalNodes>
      <leafValues>
        1.1571417748928070e-01 -8.0706971883773804e-01</leafValues></_>
    <_>
      <internalNodes>
        0 -1 74974 6.9321207702159882e-03</internalNodes>
      <leafValues>
        -1.9736675918102264e-01 6.0802859067916870e-01</leafValues></_>
    <_>
      <internalNodes>
        0 -1 33700 4.4190704822540283e-02</internalNodes>
      <leafValues>
        1.3485839962959290e-01 -8.8675111532211304e-01</leafValues></_></weakClassifiers></stage20>
</opencv_storage>
