<?xml version="1.0"?>
<opencv_storage>
<stage24>
  <maxWeakCount>10</maxWeakCount>
  <stageThreshold>-1.0981082916259766e+00</stageThreshold>
  <weakClassifiers>
    <_>
      <internalNodes>
        0 -1 6777 -2.0094017600058578e-05</internalNodes>
      <leafValues>
        5.3691275417804718e-02 -7.1523177623748779e-01</leafValues></_>
    <_>
      <internalNodes>
        0 -1 8201 7.7999293804168701e-02</internalNodes>
      <leafValues>
        1.3722248375415802e-01 -8.2482826709747314e-01</leafValues></_>
    <_>
      <internalNodes>
        0 -1 55391 5.5493423715233803e-03</internalNodes>
      <leafValues>
        -3.6941546201705933e-01 4.2437806725502014e-01</leafValues></_>
    <_>
      <internalNodes>
        0 -1 62756 -2.1138164447620511e-04</internalNodes>
      <leafValues>
        -5.2825641632080078e-01 3.5272598266601562e-01</leafValues></_>
    <_>
      <internalNodes>
        0 -1 28254 -5.0361479225102812e-05</internalNodes>
      <leafValues>
        6.8918132781982422e-01 -2.4295414984226227e-01</leafValues></_>
    <_>
      <internalNodes>
        0 -1 35297 -6.4044292084872723e-03</internalNodes>
      <leafValues>
        -8.2447594404220581e-01 2.3238113522529602e-01</leafValues></_>
    <_>
      <internalNodes>
        0 -1 42165 1.2823819815821480e-05</internalNodes>
      <leafValues>
        -3.5247683525085449e-01 5.3283983469009399e-01</leafValues></_>
    <_>
      <internalNodes>
        0 -1 77 2.2533841547556221e-04</internalNodes>
      <leafValues>
        2.6276955008506775e-01 -7.4493664503097534e-01</leafValues></_>
    <_>
      <internalNodes>
        0 -1 12438 9.1612286865711212e-02</internalNodes>
      <leafValues>
        1.6166731715202332e-01 -9.8294055461883545e-01</leafValues></_>
    <_>
      <internalNodes>
        0 -1 46879 1.2823819815821480e-05</internalNodes>
      <leafValues>
        -4.5273718237876892e-01 4.8511779308319092e-01</leafValues></_></weakClassifiers></stage24>
</opencv_storage>
