<?xml version="1.0"?>
<opencv_storage>
<stage23>
  <maxWeakCount>11</maxWeakCount>
  <stageThreshold>-1.1191450357437134e+00</stageThreshold>
  <weakClassifiers>
    <_>
      <internalNodes>
        0 -1 6918 1.1021693353541195e-04</internalNodes>
      <leafValues>
        -4.4814816117286682e-01 6.9999998807907104e-01</leafValues></_>
    <_>
      <internalNodes>
        0 -1 4870 1.3668315659742802e-05</internalNodes>
      <leafValues>
        -4.6551156044006348e-01 2.7888923883438110e-01</leafValues></_>
    <_>
      <internalNodes>
        0 -1 22611 -6.1606927774846554e-03</internalNodes>
      <leafValues>
        5.6465440988540649e-01 -2.3495826125144958e-01</leafValues></_>
    <_>
      <internalNodes>
        0 -1 39824 -1.1869566515088081e-03</internalNodes>
      <leafValues>
        -8.3439505100250244e-01 1.8395717442035675e-01</leafValues></_>
    <_>
      <internalNodes>
        0 -1 48519 1.3124282304488588e-05</internalNodes>
      <leafValues>
        -3.5832902789115906e-01 3.6543515324592590e-01</leafValues></_>
    <_>
      <internalNodes>
        0 -1 72794 -1.7236360581591725e-03</internalNodes>
      <leafValues>
        3.6306864023208618e-01 -3.1435599923133850e-01</leafValues></_>
    <_>
      <internalNodes>
        0 -1 6602 -1.9017446786165237e-02</internalNodes>
      <leafValues>
        -7.0488184690475464e-01 1.8149551749229431e-01</leafValues></_>
    <_>
      <internalNodes>
        0 -1 7689 -1.7405225662514567e-05</internalNodes>
      <leafValues>
        4.5138508081436157e-01 -3.0362436175346375e-01</leafValues></_>
    <_>
      <internalNodes>
        0 -1 72048 4.2830458842217922e-03</internalNodes>
      <leafValues>
        1.2222938239574432e-01 -9.3136447668075562e-01</leafValues></_>
    <_>
      <internalNodes>
        0 -1 33807 -4.3451775127323344e-05</internalNodes>
      <leafValues>
        5.3818064928054810e-01 -3.0883389711380005e-01</leafValues></_>
    <_>
      <internalNodes>
        0 -1 53204 -8.3645462989807129e-02</internalNodes>
      <leafValues>
        -8.6026847362518311e-01 1.4950953423976898e-01</leafValues></_></weakClassifiers></stage23>
</opencv_storage>
